2817 100
573 85.08017 41.641743 -93.968636 31.747622 -2.3378968 72.5117 76.529854 85.24567 -53.05769 19.12768 -39.392986 78.70875 -302.39484 -149.64041 16.294838 -118.5487 208.1589 160.8793 44.297077 -293.27826 -68.48788 -0.16995417 -65.27844 7.6981845 10.15284 11.836112 -64.834595 272.60043 -0.42255804 205.13446 95.348656 20.694826 133.5571 -373.1222 -81.578094 112.2865 -159.26256 37.002506 -183.12045 61.715137 -143.05344 -133.20673 -136.58165 208.8154 72.84444 61.329845 13.510048 -300.17734 91.19796 124.34224 38.119965 72.585846 -83.12192 9.06264 -126.115585 -111.23396 -208.34496 -154.45047 -209.37338 28.185272 52.89584 -233.36014 165.70189 136.56755 -157.72565 111.90885 354.624 217.70049 -182.2565 70.83624 -74.332115 99.0049 -30.45024 67.92315 124.21194 46.09409 114.98119 133.42839 129.80675 -125.444786 -126.64712 74.69674 -241.93048 95.47663 -318.40863 129.53499 341.27036 -164.22847 59.56241 -129.79745 54.46834 166.80171 -125.47332 18.937029 83.90776 -31.650955 -55.584084 78.24847 28.7645 -39.530262
2858 523.7914 87.473145 260.9706 290.91306 -26.844437 145.90845 577.1419 -196.60051 -595.6943 259.591 -292.80453 -236.0196 -1248.4952 -1149.2396 299.32828 -339.01633 592.8553 652.45056 574.9356 -954.7722 -246.85176 170.1148 -61.320137 307.01993 50.178005 474.29868 -212.39655 914.81354 -307.72375 1123.8761 373.5097 342.93204 1379.8477 -1875.6798 -602.02704 728.63165 -1275.0474 122.055405 -929.596 37.299927 -573.8287 -961.30286 -646.1366 961.33215 291.97223 -210.54059 305.48538 -1259.2655 617.90424 696.34216 462.2637 -61.159786 133.43024 275.75717 -888.7113 402.80292 -1161.5135 -814.1348 -514.71045 0.06789564 -39.036022 -1109.9277 -112.333305 395.74335 -746.7405 766.27576 1722.0846 355.3309 -880.6422 17.21931 -866.4417 706.11127 332.62137 640.94604 374.5784 681.37384 737.3594 487.8961 26.935844 -529.3047 -929.584 258.6577 -676.77563 138.81943 -2044.7335 139.1264 935.2233 -739.8926 44.390347 -570.76465 208.90031 439.4913 -1191.0511 -352.92075 42.348923 -210.20296 84.46985 844.9633 -183.01662 -284.93143
2381 40.964794 5.667013 -136.63199 -5.452578 23.445171 81.93165 101.72696 -31.623789 -81.38063 -109.37243 51.49056 12.333869 -475.9028 -261.24426 34.82851 -294.26755 294.8696 338.92148 148.89919 -523.73175 -232.23038 5.7521834 -163.9099 35.30833 30.730587 77.94531 -257.3185 375.52554 35.86248 393.2437 200.86147 106.60853 403.18646 -787.9721 -242.4192 93.97661 -427.4531 43.890236 -299.03162 76.17842 -300.28745 -226.95428 -167.91718 467.10233 113.76254 -168.0152 27.792137 -401.65875 138.70969 145.47908 93.519745 -23.573978 115.93549 119.046684 -217.02766 73.48764 -382.92233 -162.76816 -353.65213 285.74094 -24.006165 -537.84753 336.71716 181.38112 -433.91006 300.15067 676.1371 298.47974 -254.95924 12.9236555 -92.11311 266.43405 220.05336 169.584 246.71927 60.9212 291.87436 177.034 183.14458 -444.1994 -392.51828 132.27711 -301.80765 88.117004 -635.87506 -81.656746 501.043 -211.55208 -23.261238 -63.727577 169.60678 412.27972 -374.88303 37.401485 176.15878 -208.1645 27.072481 180.72401 30.26158 18.52362
2340 360.18005 48.45001 43.2678 364.68054 109.03824 88.65598 298.50308 -188.94205 -764.33875 164.54768 -157.13219 -278.122 -856.5984 -695.2876 285.7933 -125.585686 460.5664 514.7345 239.4141 -864.1357 73.29021 -158.87129 -23.56665 24.049175 -32.84006 531.405 -562.148 819.1559 -272.19424 672.4096 325.84393 353.72604 805.6225 -1397.7417 -623.26105 884.3283 -952.3801 191.09406 -804.4994 -68.25334 -513.58734 -654.3045 -627.5479 609.86 534.87115 -250.74988 181.06781 -989.691 269.5427 473.07697 496.06287 33.339928 10.352934 -60.825916 -809.29645 257.08157 -723.03 -343.3548 -646.94244 -183.5141 -11.720349 -1133.4534 -9.466243 251.0485 -339.18164 812.967 1218.0797 247.30977 -366.46832 82.21642 -815.0885 702.13983 452.4337 190.31781 504.6072 261.10266 335.64722 550.9215 -3.6254041 -381.2971 -1037.6068 220.93793 -564.1331 36.71628 -1398.255 321.57797 816.4693 -444.65088 122.88663 -690.8228 268.69998 449.5347 -774.35114 -161.71611 114.37468 -75.68318 82.109535 485.57202 -143.35477 -464.5859
2817 111.78163 -34.00769 39.523693 39.472427 -153.59306 87.16455 99.78387 -366.15198 -387.19516 150.89532 -29.30703 -27.02831 -576.21686 -485.6859 139.74757 -180.68031 374.7516 308.92975 -15.6449375 -584.67224 20.87576 -48.4896 -110.30516 208.48265 39.27169 246.0226 -342.25717 580.0638 -300.8677 528.0461 390.61667 302.016 513.8531 -1053.7352 -261.90738 424.3694 -524.90015 92.47432 -687.97833 48.794537 -281.96313 -555.98004 -261.91312 557.7442 417.6715 -352.26465 179.42897 -681.166 51.257404 232.8585 343.52353 49.30567 32.650894 220.79346 -429.68497 221.65674 -414.90848 -274.47003 -563.7321 109.55208 -41.512165 -834.63605 43.340343 127.731804 -88.70622 452.7821 906.24164 324.42395 -350.48062 199.24474 -310.93802 519.8201 331.33572 29.571419 162.55101 351.07547 240.94069 364.48212 225.45042 -200.54808 -778.6697 34.20247 -444.57312 -6.830929 -942.60565 344.54626 741.6152 -316.58118 79.40939 -419.5817 54.854816 487.3041 -358.9865 -322.99435 -9.6385975 -60.09018 145.38258 373.69318 -79.67182 -33.84959
1158 -2.7218552 0.4690742 -1.3688477 -0.3319406 0.6151954 -6.002448 11.59832 -11.991208 -8.484496 0.35076377 -0.076530956 -3.2419255 -3.378741 5.1791186 4.9849033 -3.6965683 -1.6898339 -0.4430293 -4.340869 -4.954455 -1.5636677 -1.7728025 4.0138407 -4.46539 -2.476601 -3.9753637 -4.1913805 1.3266996 -2.0908937 -4.261813 2.3487084 0.7601396 0.03316452 2.798251 -0.916414 6.932075 -4.868848 1.3622599 -4.5070543 -7.181929 3.279378 -2.1360807 -4.9936695 2.4071767 3.1259193 -0.7849917 -2.6869693 -2.7030845 -2.6655605 0.2636887 0.022431487 -9.002131 4.9874196 5.7659316 -7.9830956 -0.49569285 4.0693216 2.7318885 -6.466576 1.6806277 -7.143502 3.6188788 -8.309307 3.204856 -2.7236867 2.4615495 -0.111998044 3.6201792 7.2432375 -1.4493845 -1.4944412 3.3473256 5.5733466 -1.7880163 -2.7775607 1.8174102 1.5382812 -0.8402213 -1.2745684 -3.1806343 -4.1525507 -9.682132 3.8977246 0.9437476 -7.418398 5.910466 -3.723272 -1.6974858 6.451679 -1.9872824 5.040698 8.445951 -11.791062 1.9872416 -0.5104962 -1.8268993 3.7766452 -7.0850673 3.1071222 8.355045
3018 33.075172 -16.855013 -32.1239 -8.773184 -9.966438 8.681226 14.136024 -18.50907 -42.00836 4.5850244 -1.7938265 9.198506 -93.04518 -45.424213 37.02555 -50.937157 41.43734 25.401678 32.530853 -65.011604 -32.381893 -20.398745 -9.021648 16.877815 2.9714339 9.105645 -28.284239 95.029785 -13.044444 41.53992 26.857273 43.749596 41.972775 -143.06128 -44.02512 49.546978 -66.79082 2.995889 -74.488686 22.04659 -45.02156 -41.74612 -34.669666 62.13208 41.721725 -23.181824 -7.7211194 -70.38715 46.76318 10.529458 27.58249 1.394565 1.8365874 30.315762 -59.733986 31.055172 -67.47955 -0.13928905 -84.84272 9.884179 -8.19889 -105.54126 22.020792 13.252577 -63.311367 92.91699 91.196335 38.757973 -31.389242 -17.98999 -46.278973 68.62307 34.548267 24.73835 31.647339 -8.567144 33.5349 40.543243 23.499971 -59.70628 -80.7793 47.13811 -86.87602 28.34635 -125.69613 35.709637 98.24504 -13.272547 0.43973446 -41.315315 51.160442 74.1455 -63.149113 9.858573 11.205159 10.890966 19.841204 10.980063 7.5903687 0.10330259
545 60.802322 84.920654 -125.798775 135.96391 73.07733 29.549957 100.13104 -65.2131 -174.4908 47.908237 2.671476 95.36005 -324.11032 -80.01918 172.1553 -95.52038 126.0954 164.83379 49.940807 -178.70464 -19.347363 -15.14317 -64.32861 48.786724 26.20251 51.487507 -38.950428 172.556 -29.312838 83.13859 28.086216 59.41668 300.128 -241.3504 -128.4109 200.5486 -181.99254 -41.816578 -234.7853 -118.391624 -271.27338 -149.02141 -126.26531 251.56528 45.002842 -81.84368 75.58902 -239.02592 42.45006 86.86894 26.522413 -9.826285 23.699047 -23.831682 -220.74677 6.1449847 -169.00824 -87.96905 -177.00621 -84.99427 22.300539 -145.13257 -9.004597 42.3232 -202.70479 73.85105 360.7258 112.71036 -107.59279 106.31856 -146.45432 103.257454 43.20776 112.66913 64.39888 64.07012 49.30141 77.18553 8.991986 -224.5711 -131.22052 175.07211 -290.65732 -15.576975 -398.43344 121.532425 139.2241 -227.17604 4.850603 -136.02661 39.15222 105.05892 -286.89444 -40.307465 38.68729 -99.04321 -86.02774 107.52372 -49.941933 -45.334198
2055 109.86261 -28.967323 -205.21529 465.2718 56.650063 141.71872 136.39876 -640.83154 -509.90176 297.30624 -128.1229 226.74826 -1407.5577 -646.54755 698.8443 -32.067955 360.4427 409.79245 -13.930513 -691.974 50.716297 -314.29495 -81.72313 172.98087 9.174548 343.79892 -480.05246 793.5826 -417.99216 436.4584 386.1271 229.09267 972.623 -1169.6674 -438.03015 750.3105 -991.4481 30.126581 -857.49304 217.31215 -726.19214 -679.1843 -522.047 671.10626 267.18317 -295.3606 -120.82349 -681.8461 190.40884 640.92535 626.39087 -153.4498 102.00594 126.60866 -1064.2593 332.8272 -903.05316 -374.89728 -1097.7655 -187.92416 126.61518 -957.2621 -3.2810383 106.87011 -403.03903 523.75684 1292.8435 619.42993 -389.9885 14.164378 -587.1672 547.81067 387.29935 3.2223496 35.233303 145.59344 138.87976 314.79807 94.64912 -468.55872 -724.70703 191.44379 -642.63 322.01334 -1526.5385 675.45593 861.38196 -730.4073 -24.372826 -624.8206 228.904 326.65558 -657.0415 -115.528625 163.193 229.71703 -28.40755 554.76465 -57.252888 8.045039
4845 66.81636 -71.644844 32.193268 351.30038 -100.77838 47.127724 248.03952 -655.7135 -641.45703 208.98032 -160.35472 -285.57965 -1293.2946 -1013.05005 497.77423 -400.47272 607.29645 436.6689 -72.600945 -1108.8394 76.787 95.87439 -45.204098 136.35101 -100.04777 579.2804 -1059.1029 1211.5204 -706.24615 1082.5367 863.14417 597.4151 537.3932 -2115.5762 -758.4964 789.8678 -1098.4836 11.420973 -912.34125 180.92911 -743.9193 -1028.763 -945.5429 958.0604 839.0715 -441.2146 -54.29902 -1062.3494 252.9351 795.3645 639.9951 -35.91003 33.869877 351.85956 -656.44617 523.29346 -585.04553 -327.66608 -1326.3181 243.20709 -182.65067 -1952.6631 50.908665 77.86084 -248.48854 999.96 1395.6371 796.1291 -489.20947 303.79565 -616.78516 1037.3492 842.0059 -153.69205 341.80585 166.89084 242.21465 576.351 378.75378 -409.3663 -1758.5223 158.53015 -535.00415 359.56522 -1965.554 843.8833 1500.1655 -372.4698 607.5202 -745.1932 222.34065 811.67957 -374.3036 -679.2792 -22.964954 618.82684 138.48672 547.50543 51.26504 -166.25621
2102 -3.8126416 -73.688065 -200.85675 44.40805 95.81901 -27.630045 191.45847 -72.6854 -196.8847 -59.095436 11.261283 -60.758972 -389.7762 -91.20305 91.70543 -274.7962 271.42822 270.61288 196.55948 -329.30603 -115.83947 -20.572779 -48.205082 -30.579006 -20.585556 16.94473 -230.9218 310.99777 45.706745 244.97418 135.2546 118.52562 253.64879 -608.65546 -216.28035 147.45161 -327.2201 110.84598 -248.26552 17.145002 -250.75826 -210.31741 -165.38835 259.10178 132.27486 -83.23929 -63.196728 -381.29108 66.65556 33.256104 39.23481 -4.685808 87.428535 47.872192 -150.88527 59.075207 -257.6219 -59.88812 -257.48856 117.24346 -158.5439 -420.51822 132.10402 164.14207 -320.20676 207.40161 429.80136 109.49079 -69.92107 -73.59478 -86.04353 189.8575 235.37814 183.37112 116.22652 28.257566 185.41472 60.658142 112.3489 -262.67285 -393.4709 18.650951 -211.33698 74.67676 -564.1026 34.55333 355.7373 -157.88524 120.24034 -103.760185 156.96777 403.34332 -318.72394 -26.99523 124.726204 -106.37036 50.4097 9.674018 126.10874 -41.509636
1038 294.5212 -41.41045 -160.98003 487.81525 -222.73276 99.64139 330.47958 -1040.7867 -885.44885 466.4694 -235.72617 -150.78946 -1710.4052 -937.81396 742.6547 65.59447 598.8928 747.36914 40.57817 -930.3518 125.86886 -257.786 -210.41812 330.5392 -103.02751 561.6751 -594.1967 1029.7646 -542.9276 687.3148 701.5774 477.72577 1171.8594 -1749.66 -757.6702 1133.107 -1146.566 122.91237 -1147.0243 161.91875 -695.1561 -1145.2827 -1005.9304 901.9918 523.3851 -491.4289 -195.54329 -1011.3551 336.25766 807.2617 721.59863 -118.96686 232.74998 245.88474 -1561.4506 495.5364 -1061.6118 -500.07605 -1433.8811 -231.70885 -1.9560443 -1462.194 -284.69824 173.33325 -116.61708 836.2764 1860.6416 842.38403 -490.24258 32.366688 -821.4816 784.37634 739.4212 42.266964 42.732723 478.44202 297.09265 579.48676 113.82369 -623.17 -1301.7535 183.26323 -780.485 271.21454 -2115.732 910.52924 1222.3121 -805.71277 125.109215 -1029.2316 248.55774 630.6513 -769.63556 -334.69244 27.782526 328.80585 -68.15503 598.6691 -301.7801 -42.20211
3124 -18.571507 -5.409217 -4.8976145 20.818642 -26.943512 -21.378048 13.15466 -48.738117 -22.987122 24.176748 -13.6230955 -23.52174 -52.939842 -42.60792 42.574413 2.0518756 2.9483743 -4.390368 -1.6956731 -38.752686 -0.39219517 10.622011 -11.284077 7.4669547 -16.716063 20.74109 -48.622707 22.562998 -33.851 33.047817 50.893055 30.988794 17.876549 -60.195225 -10.905991 15.112032 -29.868547 -0.39589208 -45.413284 31.019512 1.3177626 -78.66446 -37.04108 40.320477 11.069768 -39.228634 -24.780783 -18.769325 21.993496 41.521873 42.97196 -31.942001 13.637552 41.90535 -68.19906 37.19717 -32.99664 -6.3921037 -64.03979 12.319757 17.952394 -66.49318 -29.021694 -6.342068 34.524563 39.74676 38.478653 58.064526 -17.076578 -4.453675 -21.179062 36.562737 48.328175 -35.67562 -21.276194 9.401842 -11.166454 26.146025 23.282257 -17.33309 -47.592377 -3.0752873 -12.940949 10.202879 -62.23027 44.73664 66.15823 -11.020784 -9.7549925 -33.71499 10.851132 11.776611 -13.85552 -12.097108 5.2854295 51.159485 3.8348582 9.01657 3.3259072 26.620092
3260 637.59735 513.8517 -118.22619 185.09113 78.043976 73.1386 514.742 -234.76498 -880.5527 213.40831 -122.628426 -425.39737 -898.5605 -859.51984 352.9002 -211.89911 704.5869 742.0744 508.94666 -1448.8384 -194.24269 184.08424 25.940641 183.53738 -233.68732 417.0241 -335.64188 844.53656 -455.06808 936.8384 191.25975 74.11707 1081.9736 -1427.0459 -728.20465 598.2531 -1063.7837 40.122902 -824.384 -212.29156 -661.0475 -1008.7663 -936.8474 833.59015 278.12418 39.994606 263.1374 -1313.7032 396.7998 557.5157 120.77839 15.464299 0.94990766 395.68417 -734.19745 -0.8407598 -835.92865 -470.36487 -529.4237 -60.85931 33.89853 -996.82306 -268.25458 372.89978 -761.80585 614.2663 1546.0764 458.3388 -624.9695 -306.77112 -638.3554 268.397 289.61746 460.098 136.39922 550.6862 678.24 419.08435 150.42299 -202.60254 -909.87195 -20.730772 -695.50635 150.89285 -1931.0912 78.68752 728.5692 -608.48157 122.80425 -601.9214 45.757477 840.5484 -1069.9618 -186.68793 101.62528 -105.42931 -56.16065 452.2211 -515.47565 46.28687
2829 291.2774 171.42897 9.119794 139.67348 72.537346 220.38051 323.68103 -100.62283 -416.76355 292.93692 -83.23614 236.52498 -925.33673 -416.3261 322.90656 -181.03334 298.08374 488.78107 305.4907 -601.9929 -299.58316 -137.33453 -272.9488 260.9795 24.49995 101.40618 -4.331979 617.99493 -128.89777 497.64288 270.17618 407.2307 716.39777 -1026.5297 -366.49005 537.8362 -706.7156 40.248367 -833.6097 -344.16632 -675.3071 -551.3444 -353.50958 795.92535 97.60637 -237.21106 359.2874 -695.5816 194.47168 433.67413 301.58887 4.3981347 76.82595 145.7035 -763.43555 214.47318 -769.63995 -482.5219 -411.84583 -238.83234 220.65384 -643.7704 -8.057275 288.45468 -695.0032 323.94232 1193.9349 404.90625 -618.3923 319.82224 -279.78705 361.46442 209.82051 488.80545 373.1161 367.06717 319.56775 302.97284 130.57365 -605.7835 -231.01793 440.57596 -856.0876 -67.72001 -1232.5983 133.03362 527.73944 -522.4032 -94.86409 -292.45883 309.70416 352.72418 -920.9783 -51.139984 246.58472 -288.77194 -66.750404 215.77733 46.366985 -120.64838
506 215.92348 7.5980124 -322.12732 -23.954334 131.15005 128.31352 196.95511 -71.51209 -287.29684 2.7226095 74.870445 8.140443 -631.74054 -132.8041 133.02014 -492.0937 312.02106 405.69565 170.2286 -653.50397 -284.24164 -53.419357 -184.97438 45.886402 89.29702 4.4426746 -194.04102 558.1054 -60.153225 421.79852 205.10185 186.75206 467.24527 -993.57684 -318.14478 225.98233 -532.9323 199.94681 -478.79907 -82.78658 -450.29605 -292.47375 -227.13268 645.69794 139.24968 -117.873825 -18.409647 -702.41296 117.700584 152.10579 122.29092 -21.079872 91.87312 108.76367 -342.8048 86.73839 -524.2888 -225.56744 -434.3608 195.63861 -39.264435 -663.21985 338.53677 199.24152 -648.33276 356.43192 843.53815 422.70407 -142.24759 38.978687 -124.108345 302.72318 236.58054 252.3892 265.9684 151.55663 383.74677 267.30905 184.95569 -659.4209 -503.81647 210.89609 -559.16766 140.92159 -941.2871 2.2670066 671.72266 -372.1076 31.003565 -152.29285 183.4726 586.11993 -522.7206 25.690622 176.26485 -225.23589 53.807888 203.3885 55.317787 39.61422
1571 199.67151 -73.414375 300.7294 586.5266 49.561398 -94.486374 269.05402 -290.7247 -590.17114 360.69113 -120.89251 -159.97215 -1368.3064 -900.88 512.3141 111.22031 547.4878 478.451 9.409502 -662.0912 354.57697 -72.58405 -80.11823 298.62024 -209.69891 546.61835 -573.08905 779.70044 -457.44858 457.20355 469.02158 188.21565 981.4983 -1456.0569 -476.30826 903.1272 -752.08624 -164.71886 -920.8585 465.3204 -670.1297 -803.5114 -715.6783 605.95483 606.92523 -343.1718 111.77371 -984.4178 325.32416 609.70105 606.1472 -45.855335 -150.14096 90.6143 -863.904 226.70474 -743.2799 -591.61926 -1085.3673 -3.5077295 -51.59035 -1190.9725 -60.027683 314.11526 -331.8675 642.63837 1389.973 656.28156 -457.79797 -90.645454 -861.68005 602.5605 397.3216 56.65604 438.50385 308.36554 184.70691 186.56621 -187.74524 -32.529484 -1348.1321 188.86346 -487.91998 8.722747 -1327.2642 786.3297 990.59125 -463.22046 69.50538 -745.1489 137.59215 111.6136 -361.26184 -566.9923 316.19507 230.93909 -48.625248 750.97003 -187.09938 -339.26025
2308 470.84753 308.51147 -1.4155642 651.14404 60.794422 201.55298 69.391716 -164.99474 -563.0367 339.42993 -215.51164 63.14545 -1264.3217 -818.8339 306.46045 37.058613 662.616 841.58997 -239.48741 -833.6378 348.261 72.27823 132.26848 173.87892 78.843254 713.3214 -395.1431 1196.5643 -256.57962 871.7831 337.3147 -179.77524 878.9457 -1660.6241 -748.4748 837.08386 -665.1644 266.39566 -753.3345 297.5647 -639.5379 -794.7975 -745.9798 716.2045 497.3581 -377.44666 216.0223 -1282.3701 88.72598 730.31085 360.7884 88.879196 -266.99982 247.91013 -972.401 -239.06886 -905.411 -917.12195 -575.08527 -151.43292 55.05113 -1120.8636 187.60182 253.71848 -227.84987 632.4022 1461.3287 363.86255 -363.5025 115.80715 -736.5614 475.73676 70.99773 124.30303 433.92557 366.66992 560.20557 686.3419 149.1811 -156.57422 -1345.1436 233.63828 -570.2152 79.61775 -1678.5754 436.6562 940.837 -881.7312 53.619507 -807.4062 100.61199 527.7864 -588.07904 -352.07486 430.0968 93.36105 -20.614407 770.3392 -316.34164 -219.36124
289 461.86063 236.6965 -480.55737 262.63885 155.01147 141.40439 290.5581 -358.96454 -558.5587 205.82172 -27.929373 138.80348 -979.44855 -320.13046 435.77145 -67.87171 414.62253 540.4012 -79.84916 -566.017 -11.631657 -25.936106 41.277702 172.09367 -30.17423 275.20038 -180.8635 867.73425 -109.64155 637.82935 115.02939 -83.308655 700.87976 -1070.004 -486.0867 727.9163 -659.3748 257.39175 -643.5775 -34.488667 -480.8605 -393.9971 -587.8957 574.07513 223.14479 -102.60603 95.02513 -833.64215 121.4787 419.3214 113.148186 17.01625 -150.14934 208.48184 -754.66516 -47.580334 -614.9523 -289.15268 -681.72406 -197.75346 34.7692 -661.40753 -81.36464 62.834167 -574.6994 507.4138 923.54144 441.3195 -141.23082 34.094925 -388.606 403.89185 2.959356 245.9779 162.1347 133.6311 416.93256 465.2404 -91.45711 -602.0495 -578.95776 259.37 -683.72 165.95158 -1462.1101 396.82986 689.12256 -695.8492 -128.90488 -609.51465 311.77716 785.9382 -711.84894 69.6534 133.57024 -161.14314 -56.2011 347.24304 -273.32706 53.70675
2558 90.06861 41.24858 -59.043247 56.34409 2.223848 26.809862 15.315444 -44.098587 -93.10316 43.9488 -28.488062 69.70655 -231.37167 -92.88266 56.465046 -53.941074 103.17096 90.39705 17.522226 -102.17398 -0.85084766 -10.087016 -27.20268 74.12967 -15.743275 78.72116 -31.509691 204.87292 -1.3643224 188.81241 72.52392 30.554193 112.34049 -275.45578 -61.14148 114.47513 -128.10823 8.682335 -179.50838 19.028635 -110.82151 -168.8171 -80.59386 205.51538 59.456356 -75.50262 1.5176029 -186.07973 19.916336 95.47438 61.278156 -32.348007 47.062946 35.156914 -168.63512 23.97257 -165.2415 -63.05385 -104.24473 -23.240799 36.591927 -153.84236 8.223746 23.084932 -68.47954 88.77745 223.14165 128.14653 -88.42342 64.673836 -84.336334 107.33181 23.0321 59.921734 73.918106 60.580612 84.086464 127.33826 40.358517 -112.15183 -177.72731 49.369083 -165.8585 7.9096947 -312.09976 17.861698 187.82666 -128.477 -23.51768 -104.317116 27.934643 122.206184 -129.67049 -51.895275 23.129694 -53.96778 -13.575753 100.11063 -46.231915 44.07767
4528 68.11926 -184.06998 -36.293858 37.42371 -190.73918 -39.896393 70.023575 -208.40616 -302.52557 32.112823 -152.92119 -220.30968 -603.165 -466.31808 30.9102 -201.5253 272.04776 211.48613 170.82915 -470.75146 -132.00082 -46.49522 46.338856 -8.569046 -64.616264 227.31934 -414.8015 551.16345 -26.249939 673.54376 315.5533 288.20593 318.45944 -1067.6326 -419.621 345.2112 -570.1764 79.26499 -496.03433 172.825 -92.69012 -488.24097 -443.73383 432.86526 431.31863 -244.54709 124.714516 -544.49225 377.80212 234.63864 333.69943 -6.733743 163.21 133.26979 -425.215 201.55777 -394.08096 -144.20526 -569.74194 84.128 38.37001 -778.0533 203.51091 207.51712 -159.78874 454.91022 771.85535 263.07672 -355.07712 13.788909 -319.6867 543.6783 318.32437 59.21073 315.76596 197.02754 303.9691 301.45203 224.0981 -176.50261 -795.68274 -75.593636 -314.51434 46.592617 -839.51697 130.98383 625.1365 -283.65768 20.127178 -204.9724 250.8255 514.5605 -310.62225 -184.68483 66.010544 -153.61732 112.29428 238.39157 24.013664 -38.811543
1062 438.463 115.58204 -406.17712 -3.2088122 -17.053043 -54.182255 246.3472 -160.04453 -403.7661 274.61252 -17.119314 87.6893 -1095.5856 -272.90057 246.0183 -168.30965 374.9136 502.69464 154.14697 -723.51697 -141.11996 -216.53995 -253.92014 188.90413 26.969236 174.01758 -160.55351 768.7989 -151.13484 683.587 414.2795 340.6559 635.7636 -1145.0769 -420.1142 672.0083 -663.51105 245.97127 -893.7443 -109.93584 -419.25336 -680.0648 -332.35556 880.6036 163.54396 -309.00253 133.73648 -924.6696 125.867134 233.71378 394.8269 -111.37209 139.67177 158.17944 -816.87476 115.48288 -658.86523 -339.76797 -698.4784 50.797745 25.167011 -954.1742 131.95306 261.1775 -551.4164 551.4845 1192.4595 528.57886 -531.6101 176.86272 -282.24655 439.84555 213.43347 427.6454 385.4575 389.26117 427.7283 519.99945 163.3393 -773.43976 -618.518 344.74533 -534.6746 130.03899 -1398.5876 125.836784 608.5923 -566.7181 -80.77013 -503.16074 227.01617 713.7958 -974.2902 -220.56667 178.92322 -434.9087 151.82506 347.44144 -125.13026 117.66139
4345 36.764923 51.402206 -22.015648 16.126316 47.798103 -22.183422 110.393074 -167.6917 -218.96696 47.641605 -50.612736 12.715655 -206.26944 -11.94697 189.98064 -25.523039 59.415287 129.4741 7.9981728 -137.79855 13.111378 -66.13069 -53.84214 18.55199 -7.436971 30.921726 -77.336716 139.62497 -35.575607 31.951395 86.85622 68.81571 145.40105 -195.64046 -89.22029 203.36314 -233.76244 7.037402 -188.1446 -152.4169 -161.77043 -174.75858 -129.79526 154.26796 20.268436 -2.3537743 -5.9947176 -151.27327 -35.684387 57.346497 84.61225 -40.302933 1.7821429 -5.9522243 -232.26315 88.49975 -99.724556 -6.029568 -211.72072 -65.3832 -36.615883 -119.23573 -73.41028 14.367529 -156.01639 99.67363 237.02873 55.61985 -70.61962 49.92866 -100.01126 60.131516 85.29848 3.1020815 0.34805048 96.20589 40.81975 48.650566 -32.082367 -145.90747 -94.886185 29.897987 -180.13698 96.52634 -340.52472 175.39459 137.07632 -95.95475 16.846954 -94.35612 76.05261 112.51918 -195.9527 55.73635 25.872925 -3.1965108 -7.1020803 45.946507 -17.248203 5.634467
3765 152.07027 131.98866 -45.70565 89.08398 32.77869 100.605095 213.58171 -191.29944 -167.04997 127.96769 -46.11134 76.95486 -537.54144 -277.369 236.6112 -0.57463145 292.17117 301.5859 142.17488 -404.4941 -68.233765 7.351619 -158.30397 127.59926 -79.58041 136.75821 -94.81372 327.02127 -88.54546 321.08856 191.82364 192.4318 504.02228 -552.73224 -192.46642 308.8196 -455.28757 5.7898874 -437.34186 -198.24306 -254.8865 -419.21756 -165.99274 304.4133 81.622604 -194.2424 52.353477 -358.6285 58.809357 179.06665 175.48778 -26.008287 50.470356 84.514534 -506.81253 128.92743 -428.47455 -245.98996 -200.77646 -97.87684 52.623825 -268.78986 -44.713505 111.71057 -305.73068 241.22066 741.66187 214.88396 -362.25662 97.100494 -308.36612 146.00752 47.281143 249.51581 148.50438 101.49757 149.23975 148.7849 -55.88641 -350.98047 -254.24573 240.30975 -335.7095 -5.2251725 -623.4851 109.05206 173.81302 -316.4301 4.6772633 -242.06635 120.66304 85.01492 -603.6917 -101.42619 109.17519 20.934721 -16.276142 149.42545 -31.847216 13.401403
4288 136.73726 -181.90872 143.72433 140.84933 -137.94472 27.90501 97.49602 -104.120445 -328.32883 71.82279 -125.42255 -113.573845 -506.6182 -409.75735 187.86559 -131.63274 224.65887 200.93263 180.2349 -393.3018 -10.06739 -4.8114448 12.521379 115.52509 -74.02799 264.94455 -193.94437 381.20523 -113.38231 514.32275 219.14969 286.34216 353.52173 -818.6376 -300.0941 320.22598 -392.7307 -90.38488 -451.4371 12.105598 -143.3441 -373.2349 -224.06523 354.48706 365.355 -175.58833 132.00977 -458.56006 231.83089 143.9149 225.19948 29.95291 -5.976 127.52924 -245.88448 256.4392 -345.89612 -74.00312 -327.6657 -26.93057 7.3112793 -614.6299 -36.055653 109.35423 -176.4351 416.0827 565.8697 187.76544 -269.28232 141.97974 -369.29172 491.49805 243.35715 94.652855 264.04092 128.71402 206.2151 260.55255 66.208336 -74.24655 -542.3939 84.05949 -404.4695 -52.228218 -722.82886 158.76538 490.14227 -140.24869 -5.649869 -229.72153 261.02234 211.87407 -247.36462 -217.87001 -55.955498 -53.15854 17.86791 222.37637 32.424774 -184.5213
1022 283.02594 204.67345 -592.4707 183.58543 268.92953 160.40724 435.49396 -216.06596 -514.7926 -8.450929 242.37387 50.13305 -995.6427 -339.1159 322.0858 -700.7729 696.1169 1046.4844 191.31267 -1140.167 -305.1871 50.6418 -308.92923 -82.68915 203.9993 92.358185 -502.2608 827.8444 -203.02841 491.153 394.2277 241.38121 926.4327 -1389.4116 -506.3837 865.26636 -1065.0555 286.73288 -855.0994 -364.16235 -942.3442 -486.44138 -515.4823 551.00775 384.3888 -229.84882 44.220776 -1102.3774 -265.21832 342.43152 60.658604 29.162767 -39.392433 319.4392 -864.1192 -6.6522865 -963.746 -638.0829 -902.5524 122.20111 -175.0324 -762.3476 441.45654 412.047 -1067.8984 444.28818 1326.985 615.69336 -243.50754 66.899574 -373.0311 509.06168 203.94354 218.9531 480.85263 519.9309 512.87787 512.5849 125.75668 -1011.56537 -670.52515 457.44464 -719.58954 265.33698 -1799.1041 53.257946 966.6584 -821.41766 80.102806 -388.07428 165.51721 865.9281 -989.1735 259.0283 569.6492 -79.64592 145.73769 373.63248 -123.47259 109.93303
4337 -3.1363409 -1.5476475 -37.814236 39.9754 -18.136742 -88.62628 46.631588 -164.78667 -150.73282 39.299442 -58.814835 -61.49 -217.12558 -116.26428 122.422844 -13.5351715 41.071877 42.407764 -35.70031 -110.95846 38.40293 27.302876 -39.253357 17.340754 -38.33934 55.868195 -208.5759 72.08636 -97.132385 63.147545 185.28362 79.23753 111.945366 -236.4316 -120.95109 129.06479 -138.64262 30.621729 -72.28936 60.729763 -57.89662 -218.26611 -146.07744 94.88892 75.78999 -64.42248 -141.93411 -98.01667 38.476894 129.82744 76.82069 -59.040085 22.803997 63.239765 -160.0574 131.65797 -71.62219 20.997826 -168.86607 29.454935 -62.01099 -147.48425 -66.504265 53.213196 26.992575 144.8356 184.00562 141.9246 7.491692 -43.0968 -114.928665 47.265232 133.44064 -47.664455 -72.48416 75.13622 -11.371822 83.72008 6.7987304 -8.550215 -237.21875 -53.946644 -84.39803 99.956024 -237.23425 206.33105 185.71515 -55.29105 71.08826 -108.20335 48.93924 121.82487 -68.95293 -18.395302 -13.641842 182.76958 55.9941 18.614664 -67.91156 141.19011
577 497.78305 313.96848 -449.977 182.061 410.29306 377.7987 798.58374 -202.4173 -536.682 -96.946724 204.44939 384.4301 -1288.7911 -601.4503 410.48975 -652.9213 926.37134 1183.0958 451.5927 -1319.6849 -584.96765 129.18524 -324.7848 -86.940186 181.9893 116.36658 -412.29037 1048.7207 -77.23424 654.0364 354.91425 315.49573 1132.471 -1716.5221 -356.57523 1169.6968 -1420.1531 443.79337 -1128.0698 -398.0982 -1071.1023 -609.3044 -689.8717 609.35114 236.1019 -183.65524 272.29837 -1608.0779 -347.23874 537.55005 10.6630335 122.97468 -162.30305 475.7439 -1055.4917 -146.1452 -1393.3427 -966.674 -832.8009 80.204384 181.7827 -824.5657 516.57025 754.22076 -1524.2562 325.01764 1834.8044 825.4341 -306.92133 85.69128 -260.917 627.163 -72.13006 491.95236 813.7113 735.8263 739.8051 696.9879 209.70425 -1387.6744 -509.20215 656.56 -902.2129 213.20375 -2159.3657 -8.725882 1216.8815 -1220.8643 36.137497 -371.96683 -6.3785453 749.7872 -1278.689 407.31488 684.34076 -173.51471 57.706932 613.6043 -102.03869 -5.9314194
3357 10.148799 15.049881 -9.951931 28.041119 -3.5667746 12.467731 52.805855 -57.881268 -62.944614 13.578017 -47.281555 19.415995 -109.31263 -40.911373 58.91669 11.221694 83.178894 66.24624 44.26108 -51.241997 8.464584 -22.674227 -15.424281 26.540222 -9.413827 35.010002 -30.046595 51.858448 2.811797 31.258884 35.97944 23.148588 80.67004 -126.80164 -44.859966 93.70709 -53.148624 34.118763 -96.37883 -9.446708 -53.544582 -79.376274 -73.15888 56.296562 8.456008 -36.740376 15.898727 -78.99876 28.941498 40.06858 40.17671 1.5028623 -0.9834226 20.79815 -90.592636 13.461982 -78.942505 -75.67315 -44.526405 -29.528511 -9.982834 -114.65781 -20.393362 5.0880127 -47.763874 43.66596 144.5419 26.079384 -69.03844 -13.622009 -54.605415 36.20152 6.80804 32.4751 32.79453 -0.20580772 30.351631 37.170643 15.247895 -50.480057 -69.858154 44.52399 -51.337948 6.688727 -149.60112 55.27001 66.71107 -64.01229 8.067092 -73.591736 -1.418592 35.789856 -76.64854 -9.177727 19.801258 -2.199032 -25.712156 27.44424 -6.54923 -17.066996
3891 109.497314 -31.121408 -189.72786 71.396996 141.19495 -11.814178 180.29092 -79.647255 -156.45602 -162.14783 136.76038 69.91362 -487.18515 -151.06505 193.07509 -257.07187 312.5734 371.8368 158.87405 -584.43805 -76.759346 -173.6566 -93.74804 25.973583 -9.277551 84.27815 -215.28142 498.31982 75.000595 484.75262 93.85438 47.89165 388.94788 -772.9264 -225.72794 264.60876 -484.11377 151.99171 -481.7202 -275.70355 -281.91177 -275.3804 -141.54659 286.1547 99.46735 -86.42565 133.4536 -507.35315 19.851395 205.21378 -26.585035 -5.9398804 35.91019 142.42706 -259.3429 1.4786123 -503.90286 -152.38536 -322.2308 111.2833 60.463463 -319.86725 372.8134 137.01897 -458.74695 319.24136 584.9496 216.04253 -131.05559 69.68878 -106.716255 358.0883 173.1721 254.05724 338.19266 62.10097 392.91647 243.7806 49.228466 -532.4977 -287.47968 116.15158 -457.50992 102.979904 -821.0315 -75.12903 361.8273 -448.65588 20.239992 -157.05342 206.49174 444.51212 -465.06506 192.62842 91.60483 -212.8076 21.042715 140.90929 53.41846 35.783993
1574 142.0263 407.8073 -330.1921 441.6538 266.3572 266.5026 277.28833 -495.65622 -1023.03235 279.81528 -114.643814 98.199005 -1483.1417 -745.7731 583.5333 -149.05391 701.301 820.6374 335.41867 -1145.4437 -133.23904 141.14488 80.26108 263.45364 -19.742983 465.81885 -721.5133 1061.5662 -484.64194 864.5999 405.3139 -237.0601 1098.4149 -1467.2621 -491.36902 739.34686 -901.15485 96.33357 -719.07697 329.26517 -679.6239 -849.0574 -788.02057 976.5052 121.14973 -119.33133 -4.8143034 -921.0693 162.99188 596.7735 332.22852 257.8462 -144.88985 251.32654 -928.5918 -124.63047 -768.6595 -567.4166 -673.5962 -134.82568 156.56688 -792.8529 -292.1278 350.4364 -642.9491 577.83905 1413.3042 606.00366 -495.15085 -21.067503 -853.66473 621.3983 97.16234 220.48279 57.204014 385.46756 518.2033 734.81476 294.87756 -165.92354 -928.86536 84.020096 -598.52924 156.1635 -1778.2634 698.61664 1154.8381 -639.56964 99.08271 -502.9402 255.81369 637.53827 -1014.82745 -150.00983 25.45969 -31.427713 -377.0759 426.78693 -155.34846 70.58207
2013 383.0315 216.44064 -511.15433 387.11102 329.59955 101.043724 572.97815 -605.56696 -1196.9028 243.53474 134.9513 -151.11525 -1495.8469 -567.99 794.6193 -118.81834 670.3699 1012.006 260.5477 -959.1479 -63.839836 17.627983 37.78355 276.0702 -95.96398 367.80878 -796.6328 895.4265 -319.01346 876.1638 368.08914 -35.981365 1221.1597 -1310.046 -688.6713 1122.5612 -1234.2297 410.64664 -848.00085 -99.82363 -683.96423 -909.4751 -968.19775 722.50604 62.66824 9.843544 55.39038 -1199.9883 53.203022 534.6043 373.72443 -103.95903 -209.38905 272.51425 -1310.406 -11.19135 -837.56323 -547.5522 -962.5098 -561.4932 -216.55975 -807.47485 -457.22717 461.11722 -819.04987 720.4651 1452.5198 405.17603 -238.18694 -273.774 -859.0715 551.1901 52.955006 427.65115 59.416897 487.1682 557.97974 741.4615 -52.107853 -472.63937 -762.7097 200.40265 -675.4272 224.00066 -2155.5425 878.4647 772.02014 -992.67365 61.470955 -622.9396 470.19806 902.52094 -1537.2013 -66.65159 144.26552 64.41356 -9.128447 269.25818 -355.12332 131.26341
1357 100.62084 124.47079 -71.955124 208.88205 195.55989 360.7045 593.389 -348.52692 -500.76248 203.51398 -65.64375 489.46 -1418.5184 -547.31696 629.07935 -120.80965 580.5236 563.2625 331.48898 -879.93085 -347.64496 -49.89827 -392.17276 276.01474 2.634817 218.28795 -282.14578 886.44464 -96.76418 470.17133 414.12262 566.54443 1173.5154 -1349.5483 -326.27823 991.4366 -1079.6023 32.228687 -1195.8341 -488.01602 -943.3005 -877.7403 -345.98254 1016.9275 137.35245 -612.4716 204.86028 -1106.0059 152.62482 369.6846 533.9093 34.76795 273.79718 220.65439 -1313.1353 344.4152 -1082.4458 -484.71155 -693.95886 -134.46881 278.68887 -924.71265 -14.356947 122.68361 -1035.685 416.38556 1823.7092 619.4697 -784.90985 464.74054 -615.0478 765.2097 304.0801 476.52563 485.96243 643.5591 446.35034 469.25293 -49.654415 -998.04443 -547.0445 612.438 -909.06464 -27.20914 -1770.7241 423.51917 693.6131 -756.35474 -203.27052 -622.3094 186.33904 558.7656 -1283.4502 -92.20034 373.38458 -213.73602 -57.885647 296.42572 128.6282 35.257904
2081 263.37357 269.6847 -294.92142 413.80408 192.05533 155.15828 -18.542265 -450.59793 -393.72427 219.62625 -110.75556 252.07736 -1040.4385 -509.45245 358.015 -103.99174 386.7618 451.00967 -150.31294 -919.832 162.84671 -164.13354 99.25042 32.761265 187.31354 449.96176 -386.17105 952.37427 -221.8837 458.16275 194.28091 11.825209 761.67645 -968.26447 -574.44696 477.09088 -585.31177 70.844795 -459.3888 -33.61277 -590.67816 -554.53143 -423.73978 723.30615 292.7129 -202.12643 -33.993786 -755.0166 157.8671 523.19696 432.20758 70.850746 39.929855 171.98128 -722.88196 40.75385 -684.2419 -331.21216 -708.3338 -122.17313 198.71425 -723.4629 346.49625 186.62782 -486.0388 432.37018 961.5912 398.51672 -271.2455 27.96354 -488.83112 556.5816 231.70343 -51.177185 146.82823 88.02235 192.64845 461.75388 345.05417 -372.6781 -673.7339 107.08907 -591.3424 281.1093 -1305.7365 461.53354 767.2126 -728.0075 -47.220116 -539.6112 74.78306 530.0085 -360.36365 -105.12142 276.2618 196.67027 -89.390076 555.3201 -148.71873 160.45613
1283 449.1235 206.18573 -199.91843 737.17816 389.3131 152.62236 395.97974 -273.3373 -869.6625 255.45523 -221.62439 187.94226 -2070.2302 -960.66156 752.0587 -121.58133 545.80444 658.63293 235.49754 -1426.4381 208.31557 -284.8816 349.3777 62.2747 39.179604 555.7268 -561.0834 1271.3907 -208.52307 751.4598 447.1113 -95.66869 1279.5886 -1450.0752 -612.28394 1100.7303 -1160.956 -180.8961 -912.8131 -53.32817 -852.327 -1191.3792 -871.2069 968.212 372.15118 -89.4879 42.01308 -1482.2042 520.22687 793.14923 681.88055 -45.372337 -76.03042 262.58408 -1369.9158 78.129944 -1136.7875 -610.4685 -1140.2882 -388.0043 411.58572 -1133.7216 -80.76608 443.31454 -965.8066 824.7193 1766.436 498.48145 -638.1775 196.92853 -1017.18506 905.5563 125.87505 207.60585 360.9985 253.51128 332.20987 556.582 310.07928 -340.74753 -825.4127 302.8841 -717.99286 441.15762 -2176.9421 931.5662 1146.9485 -1103.4552 26.643518 -863.8563 314.4787 716.7491 -904.08295 -289.5806 413.64185 149.92236 -96.78798 694.0593 134.82831 -220.63457
3304 323.36456 611.73926 -513.89465 373.06927 490.09296 156.12239 449.32553 -183.18715 -680.0469 149.5466 -107.69971 43.601833 -1162.1039 -704.1472 385.11023 -88.300255 598.3078 638.494 335.6904 -1122.4683 2.921228 73.73288 101.467606 89.571724 85.64636 284.19656 -518.8244 886.9209 -247.00656 821.09296 406.62033 -323.64398 1022.0273 -962.85175 -512.554 451.6369 -764.9986 -103.18176 -381.92224 -28.941973 -762.4452 -628.2268 -632.9103 758.3494 -58.080326 23.868996 -174.67708 -871.19385 440.9172 382.7472 170.86487 152.01581 86.28423 211.05652 -735.60876 -72.67931 -658.833 -264.30588 -332.3249 -130.59802 167.78096 -242.01024 -216.93039 269.93286 -862.1367 488.96945 955.9843 304.43307 -494.30292 -4.7999306 -646.12634 316.93338 62.432987 391.81253 32.65765 218.53233 361.77618 578.1653 338.9338 -188.10966 -619.2892 -67.90024 -349.3142 192.15297 -1562.0594 274.99103 584.3834 -574.4622 56.15154 -474.8817 189.1243 516.1446 -899.1897 -80.92754 95.93035 -150.34273 -256.22418 322.6786 -212.64008 150.89519
867 353.88007 124.97382 -392.3811 -2.5219383 293.6825 260.35458 639.27325 -141.56538 -426.86365 40.445515 122.843605 375.2292 -949.6496 -346.63016 284.24094 -418.06274 491.74002 824.32513 221.20496 -861.2823 -276.31732 94.80478 -316.03683 80.327805 194.60101 31.84928 -228.52428 914.603 -81.888016 588.4948 196.41022 223.22945 771.7889 -1270.2018 -353.40646 758.8954 -856.88727 302.8271 -1003.4332 -466.1876 -665.8304 -416.97754 -342.56085 633.8004 220.2771 -125.4709 273.58765 -1062.6658 -262.71042 393.55804 37.7944 42.354862 -117.56299 299.75534 -801.78735 -161.04796 -933.34924 -358.41122 -611.64496 43.497734 210.53677 -617.2944 387.29144 194.1298 -990.4711 321.51544 1237.8995 689.9033 -95.05734 19.845999 -228.05104 551.43884 64.59267 332.74744 713.9219 367.10593 585.20135 627.8685 100.04484 -1099.05 -343.0852 401.09924 -871.63477 44.482895 -1612.3959 -79.89263 849.5053 -812.8014 -79.187675 -406.33594 103.657845 811.32166 -793.37384 300.27676 385.1468 -292.5727 13.331752 452.22803 -227.62198 106.79064
3863 253.77672 145.65569 -319.72485 137.66676 302.55014 108.92029 617.8741 -505.31375 -568.6287 159.87299 -121.347916 176.97557 -1183.8981 -663.84375 504.4842 -90.25614 610.97455 715.53326 398.25754 -830.2023 -302.95563 -47.6921 -342.38663 214.28053 -138.72162 265.73917 -536.8637 822.4048 -37.99397 566.5773 417.8503 554.8919 877.806 -1410.9104 -392.00714 781.9781 -871.023 101.564285 -1222.0366 -430.4061 -664.2052 -791.4039 -515.37317 658.4553 313.04285 -334.16998 113.9903 -923.84955 330.6255 311.8596 295.2963 -131.80084 189.29802 251.56877 -1101.6519 351.37482 -829.85736 -311.77795 -833.709 -135.29141 -19.74345 -863.80756 3.4601285 281.9115 -758.7536 712.3556 1550.4612 628.82227 -667.414 146.79648 -634.5325 672.92737 257.48248 476.3663 426.10623 242.86212 206.7312 443.4251 126.38354 -644.29034 -780.90753 281.5201 -704.8757 13.244038 -1608.3367 413.11896 717.2018 -660.47784 -56.190353 -533.1419 469.1772 644.43536 -1176.3021 29.182999 272.5168 -66.2123 1.6772906 164.65181 1.8999089 88.64863
824 103.61847 -56.260094 -241.35406 -9.14356 41.97225 81.34013 100.652855 -182.95279 -177.00873 16.373636 14.418352 13.805406 -422.5445 -145.12395 130.81577 -157.2631 361.99402 332.28693 21.180193 -321.0349 -99.60132 -82.26981 -66.567764 61.825363 34.7382 92.72997 -189.14423 392.78998 -85.57192 354.38226 126.171646 246.99031 299.453 -708.52075 -239.81236 293.31952 -392.6661 122.48597 -410.63327 101.96331 -195.47649 -223.9846 -197.11272 373.90146 163.11496 -109.29789 40.63861 -445.501 22.252398 87.38768 201.43951 65.307335 80.216324 143.26308 -282.1141 122.65425 -260.30295 -75.48173 -406.1838 137.37672 -60.339504 -566.2232 220.435 88.91477 -196.55426 332.91107 534.48627 242.79031 -125.55812 -14.58354 -195.67236 347.58835 184.52567 94.66695 200.41167 109.95131 264.04468 284.09314 82.69473 -312.45337 -507.37762 148.71722 -330.73495 104.02725 -718.4026 171.10034 550.3055 -243.73416 50.97097 -293.41016 99.74853 323.28055 -292.86447 31.150217 17.931118 -79.24344 68.731384 184.41666 -8.887095 98.74708
3621 186.27792 -36.308678 129.11 158.36174 -333.45172 -35.355785 18.994913 -277.13074 -692.9378 269.75076 -263.17062 -384.05463 -1663.5745 -694.20355 533.2577 -474.67987 497.31558 455.64532 105.76396 -1063.4769 -156.62578 -324.9378 -472.2223 1.6272528 -127.46884 279.6351 -459.97018 848.4653 -510.29456 382.33804 920.7679 800.3268 809.5812 -1987.7517 -387.1161 729.14343 -1211.6658 220.63228 -1087.2432 181.95557 -753.5344 -624.347 -457.4568 1136.2964 365.6444 -751.7273 -56.538258 -850.3255 379.38388 849.8941 839.0492 -286.6471 389.16583 -35.030315 -830.2706 520.47845 -626.7196 -527.97815 -1276.6151 350.98654 -101.193886 -1949.9893 375.83652 269.0456 -710.6108 641.54364 1860.4657 901.6002 -807.51355 243.07481 -447.78613 546.9165 1070.7084 90.97441 363.8863 417.05222 207.54053 351.0446 348.28738 -832.3836 -1211.6841 235.69937 -718.20844 716.62354 -1717.1233 722.09937 1658.4376 -289.28662 381.7791 -536.5733 249.74971 573.3899 -715.90393 -270.14612 228.18149 -30.804743 133.04308 343.82455 517.71814 -423.32825
2827 259.1295 98.009964 -213.2086 260.63843 175.80832 98.53475 311.15564 -83.04578 -599.278 84.74988 -115.040245 -86.01099 -771.6792 -383.72244 442.5236 -135.75354 323.94412 433.78674 219.98267 -626.21625 -7.189313 -47.724415 62.073788 50.78773 -30.386799 156.96944 -240.45428 642.542 -184.7447 555.4455 237.8211 -50.84427 679.0799 -763.67395 -408.4337 647.0295 -680.21436 119.07985 -495.07538 -224.4523 -411.19543 -395.8288 -474.27005 479.50238 139.2745 51.254223 73.71779 -653.2156 184.528 280.6538 141.5821 -54.884266 -19.376547 193.69438 -616.6601 10.500035 -547.2641 -180.28967 -437.22083 -146.3994 -104.72811 -299.45505 -161.8874 236.56187 -591.22034 398.21133 832.68445 130.71771 -173.56133 165.47917 -492.87558 357.7817 -2.2874975 275.0354 218.49478 163.61404 361.4564 326.10147 -64.96199 -327.46466 -372.8657 126.13804 -401.6505 89.863205 -1248.7072 290.49567 427.23727 -498.9617 98.68069 -312.82904 154.03937 464.53845 -943.0592 -38.724216 156.21327 -76.30837 -1.235015 207.46664 -58.17297 -113.2774
2326 213.9744 12.796028 -104.766365 69.46705 166.41414 118.52033 197.48146 -69.90627 -60.278885 -162.52954 37.343903 176.5746 -532.6369 -263.3434 129.56265 -331.5157 333.8694 364.2782 254.1893 -631.84204 -256.61017 -49.21306 -193.8182 81.65853 26.836323 85.13558 -55.01147 577.85095 89.431656 428.30258 98.61266 209.84143 464.53253 -975.24817 -249.42564 300.38 -481.0529 121.64913 -511.8378 -116.14424 -347.4378 -272.45404 -146.13268 472.6915 132.68727 -77.081 107.633026 -619.8092 16.135551 224.97568 -1.3274341 28.148182 44.379242 117.15208 -307.99573 -55.166798 -625.19525 -262.3119 -294.66995 237.18027 70.09873 -532.1688 444.06964 188.34508 -609.23096 177.82843 730.67065 361.48148 -128.89749 40.831955 -73.907906 443.50864 212.86702 202.89262 409.56375 165.68433 447.15073 322.6454 81.70359 -628.6303 -297.21545 147.72997 -593.42065 81.08583 -844.90295 -149.49641 683.67633 -436.85092 -36.285103 -172.83023 181.35274 454.03653 -417.25732 240.18254 141.18188 -316.57004 18.236147 273.591 44.796345 -79.62602
1305 300.25662 162.03323 -217.057 261.08893 195.52315 215.90416 370.57153 -208.05104 -460.1887 180.9729 -63.80735 197.70738 -849.2787 -362.0899 300.5636 -111.26493 478.47144 559.8461 215.29782 -611.34436 -152.17468 -36.95303 -170.09598 104.243286 119.75229 134.36249 -78.284035 742.67883 -63.287155 252.72026 123.982216 118.17104 799.95087 -787.1732 -340.28812 630.0213 -534.75635 95.18297 -689.8497 -345.10403 -619.018 -349.32346 -381.18295 592.22205 111.00563 -143.5916 185.21758 -809.3674 80.44784 327.6114 206.44722 134.9214 -64.44081 63.836987 -918.952 -89.83238 -692.07227 -413.63474 -351.98532 -357.2367 174.58443 -389.73242 60.258026 193.74329 -686.812 298.91217 1066.7296 369.81152 -442.27475 227.12637 -394.18588 378.95312 -6.949749 299.99988 433.38123 246.52733 294.28708 323.87384 -78.861465 -524.6631 -366.57733 437.69662 -674.39734 -34.618145 -1217.5593 227.00697 471.65668 -636.891 -20.662148 -397.77353 117.88053 308.5151 -752.51373 -9.0730095 376.6162 -202.43759 -212.51352 275.1661 -182.6553 -62.08753
3534 4.6334615 27.173868 29.305014 105.31641 -57.404556 -32.968185 59.480957 -169.004 -88.958694 106.70775 -93.29837 -10.299955 -336.5536 -209.69461 172.98442 16.899271 45.54997 74.747925 -0.45356914 -150.28546 23.095123 24.857443 -3.028904 42.689583 -8.990359 125.340965 -166.14331 118.97721 -38.883003 124.7312 151.07727 130.91837 167.5427 -346.68323 -104.85593 235.42422 -178.63403 -45.547165 -198.40195 4.1772017 -66.84415 -298.7904 -119.23575 149.4544 122.27851 -185.68718 -61.509964 -186.84132 39.27228 173.00003 158.54645 -104.03682 40.831776 122.41097 -400.57193 169.51128 -152.04202 -26.277365 -280.381 -8.052986 92.23921 -262.97028 -32.231373 47.58887 14.132603 198.72862 337.01263 151.51447 -116.81837 53.41236 -221.15848 236.8618 2.6267571 -36.29765 9.130137 141.09393 5.6094875 117.915215 3.016751 -74.287056 -282.2198 5.3888884 -105.04188 5.075355 -317.09607 125.520226 194.78146 -136.97911 -20.674814 -83.57437 62.873642 125.31314 -117.71487 -52.500202 44.61715 76.84874 17.711119 108.22959 -29.413998 75.255775
3252 7.3301773 7.8079743 -43.784832 19.23005 -3.181944 13.487693 20.93541 -22.710415 -51.60627 18.681837 -21.657585 16.966793 -78.08818 -25.486513 16.10769 -14.570934 44.947372 56.29196 -1.4171321 -54.3353 -7.700997 0.025597868 -11.207275 -1.7150654 3.4408333 32.270714 -17.41308 85.52375 5.0562177 61.38242 25.459972 7.9100075 35.603443 -86.55201 -48.31097 80.92221 -62.353943 34.89433 -55.03564 -13.940053 -45.542976 -46.55493 -22.742466 40.866753 24.301311 -2.5168788 14.239907 -88.53554 5.7311788 26.254963 10.200274 -6.6245327 -14.65278 20.799017 -89.1607 -25.04006 -76.08565 -30.369617 -45.76323 -37.77977 20.397062 -40.16846 -1.3158007 16.970978 -51.89346 54.62669 100.644966 30.405153 -26.219822 -8.310767 -33.48976 32.257393 9.496867 40.712467 40.000584 25.758026 36.376007 64.64465 5.2343473 -45.54591 -29.11624 8.819047 -41.148384 5.641774 -127.59384 22.48508 48.550976 -69.05917 -1.6731371 -44.056698 16.26814 57.025757 -89.17685 1.6470073 31.580992 -6.6593814 -19.83881 28.810295 -12.056748 28.343746
2295 -1220.172 5507.437 -987.712 -2015.2673 660.94055 -1788.9373 487.79327 411.94205 -1530.1018 -4778.7456 3073.9102 -4062.2815 1659.5703 6284.9697 107.47605 -4376.5117 5111.925 159.7317 -2394.9402 -7093.7734 -5978.8574 1268.4055 5042.71 252.50829 3175.584 -5161.5464 -2937.0005 -1146.117 870.7194 396.67032 643.0759 2675.5918 3351.0007 -1185.809 -990.1185 -3809.7075 -4258.129 2176.7065 271.5228 -5439.4834 502.80988 4124.5 -5781.7563 -2878.4844 119.732086 1499.0848 -4046.905 1593.8435 3602.8728 -1911.1976 2816.7788 -699.9444 3477.2512 -3873.8616 -4722.073 -1463.462 85.70432 2606.4849 -2744.1843 1257.95 -351.0087 5109.9473 1018.1577 779.7484 -7862.1567 370.9758 4040.6267 2931.9482 -1931.0607 -6045.831 1573.1971 -4656.968 2131.1682 2310.5864 1374.1763 -3805.7766 -2460.7107 -2634.1138 -3068.6516 -7758.21 -3561.924 -4354.5444 -3336.0828 41.13879 -1160.8499 -325.26706 -822.9066 1347.2197 3019.0718 7422.1323 5328.171 3260.285 -5599.8794 3664.2239 3089.4478 1029.6018 -1312.8761 -5501.1743 1767.6208 -753.9456
1115 351.7747 175.25745 -319.56314 383.18823 97.53788 295.833 83.78644 -205.8425 -493.62997 113.77485 -78.356575 214.56387 -1237.6832 -562.12915 66.91607 -25.295311 611.70514 513.46625 203.54553 -869.6804 -43.95891 -37.497395 141.77995 122.864494 55.82694 472.423 -279.79498 1075.3342 -53.963997 889.99725 105.961945 -52.444145 731.2136 -1283.259 -643.7904 514.80365 -596.7099 138.33493 -640.867 174.642 -390.41928 -577.0646 -555.981 773.5342 450.17606 -47.648766 114.96055 -987.3487 367.398 438.88745 248.361 115.50077 -56.82846 159.21182 -846.539 -29.668129 -778.7823 -619.1933 -673.6032 -246.39616 161.67493 -905.6953 189.77025 410.53806 -403.086 521.78766 1132.8698 448.5108 -413.18756 84.964195 -541.53894 533.9129 -3.9250422 272.2881 327.17804 205.25783 532.3061 495.77353 234.25378 -331.63947 -670.6767 148.46608 -631.1519 175.01363 -1397.3435 351.11014 960.24915 -760.3371 -62.670563 -511.815 283.48273 658.3324 -840.4498 -278.09094 293.75363 -79.697495 -140.58182 498.81168 -31.508549 -136.0931
1567 5.220347 -0.4821166 4.0540433 10.185879 3.8761292 0.35943934 -3.3707964 -4.943603 -5.971362 -3.2777321 3.0397203 -2.6004646 -10.107744 -2.8259907 11.39933 0.9088381 1.3996851 5.3662815 -4.336037 -12.2580805 4.3452353 -1.1091423 6.011889 -2.8301795 4.97195 10.412058 -8.059376 6.269664 0.16031364 16.04708 -1.0032655 5.8805566 5.8366375 -17.430119 -9.447519 6.9320335 -4.1554623 5.495888 -19.51203 0.20721707 -1.553557 -12.56014 -5.6454268 8.517483 4.7805257 -0.7182839 -3.5565042 -8.4717245 4.160619 4.902076 -4.446201 -3.1377017 6.8082957 6.695607 -13.226542 8.407268 -9.977536 -7.71048 -14.190643 -2.9967716 4.345246 -6.4655266 3.8882604 2.2600603 0.89542615 13.405981 14.660449 3.795361 4.185387 3.8363729 -2.668789 9.972961 5.1304555 2.6300492 6.405886 -1.5396074 10.711785 12.99607 5.966967 -11.165492 -9.007975 -1.716158 -9.063981 -2.860031 -21.648964 -3.018902 12.496838 -10.332214 -3.1912076 -1.3640399 8.882352 15.28722 -12.245447 3.8662796 -3.0285978 -3.1626132 -0.63091236 5.373663 -0.57549393 5.3955503
3548 507.00095 169.69725 -393.61597 128.79472 86.22931 178.34798 236.21063 -192.84286 -479.08542 197.12685 26.362799 474.74597 -1098.8774 -312.212 375.84146 -269.51727 340.91547 609.0636 36.043957 -728.13586 -129.49016 -252.01347 -235.97371 267.34714 107.8766 215.65814 -122.21423 918.5309 -122.697174 604.45685 35.729973 83.30789 663.82733 -1090.5723 -403.886 477.25168 -629.1338 73.65358 -868.3721 -270.80533 -771.1363 -534.8951 -309.50833 893.4302 221.17479 -240.34862 161.7982 -950.56415 43.560295 429.9369 143.66563 169.3874 -25.408352 44.54717 -543.73065 35.533325 -650.76025 -303.6562 -635.4578 -227.1084 83.39425 -729.7483 195.20845 46.13278 -688.22205 504.2988 1292.1377 368.28104 -445.13342 313.2197 -302.35754 433.78888 141.72249 367.99847 243.54791 201.1022 453.66394 437.42303 178.71454 -765.51697 -624.1214 518.85095 -946.80206 -6.155877 -1449.1787 238.66986 783.2676 -694.70337 -129.9323 -218.62462 188.69815 808.57886 -805.321 -156.9414 30.654829 -490.78976 -64.867 395.46448 -196.24435 6.452632
1356 13.956279 10.55313 -11.022717 1.5109738 3.329215 -0.68717027 3.8012862 -4.5917788 -12.258121 6.3926086 6.371983 5.236073 -19.465567 -3.019891 4.640587 -1.5238216 4.733447 14.706536 -9.3237705 -8.743234 -4.8257623 -11.830741 -1.8526396 2.0725057 2.3814251 8.093881 -2.0826163 13.539485 -6.811981 0.8847751 -0.50401175 -10.274769 10.7271385 -14.688382 -7.6263986 10.201998 -5.865195 4.5228777 -5.3963013 -2.0982318 -12.053922 -5.9920597 -11.331215 10.391092 0.97765857 -2.7140892 -3.9971101 -17.450716 -7.294963 6.604002 -1.1561499 3.690147 -4.582741 4.786097 -8.283745 -5.5121183 -7.9914985 -6.481761 -3.1590576 -5.3004723 -0.73555696 -10.011075 -4.3662934 2.4748063 -12.498077 4.4151373 18.40722 13.914314 -3.082719 5.8237934 -6.4599338 5.624035 1.5758691 2.4354768 -0.08366071 6.8776164 8.834249 9.767272 3.0277777 -8.731691 -22.560852 4.2327447 -15.870779 -2.6793365 -26.608358 1.3435007 16.354723 -14.184339 -0.3389352 -5.7726197 -5.503738 10.983382 -3.2328486 -0.10123659 2.8714738 -5.2157164 2.0028498 11.54651 -7.517604 1.9834754
4517 8.294168 -141.08089 -52.905617 -63.20201 -15.72268 -9.782661 140.89595 -84.76127 -126.47221 -94.04334 17.554205 -44.45753 -266.80612 -162.53398 12.991506 -167.76482 229.45216 161.11572 171.48111 -351.63113 -157.44455 -71.20441 -33.979767 56.240005 -36.44713 75.09582 -143.71196 265.96667 -9.286829 266.379 96.26428 220.9774 106.08057 -564.9911 -222.85657 175.69337 -309.31705 43.824966 -234.5603 -93.70595 20.491377 -203.73936 -201.1487 209.48213 137.19022 -77.34737 18.775879 -305.39203 189.02313 46.130417 97.45477 -101.07437 142.06532 152.71947 -135.88182 97.58415 -180.99985 37.515156 -287.08594 94.93187 -137.61781 -434.53888 138.90982 148.67735 -182.53828 221.24722 384.3517 115.67092 -84.979546 -77.99464 -108.9762 215.83655 220.16771 106.00511 110.329865 70.27419 164.98134 134.55608 182.08018 -241.90524 -222.03308 -15.332214 -224.22359 136.84248 -447.96817 63.129482 336.3832 -113.18812 -12.642213 -77.91904 195.02333 320.2556 -354.39908 9.937226 47.431957 -63.246418 115.83578 2.5119061 92.97982 -42.219364
2113 144.94041 -226.05049 -167.17816 2.03613 158.88603 181.85522 421.62332 -639.3228 -491.43195 -322.33078 11.223897 -306.00964 -1132.9631 -695.2886 253.31064 -352.64352 1119.072 862.1604 294.36423 -933.9146 -126.65987 -324.27487 21.649897 192.40193 -299.44553 505.10587 -605.36786 1248.007 25.547947 1139.2539 360.4963 410.71384 686.49475 -2396.19 -755.2376 790.9711 -1146.59 212.16476 -1035.7032 175.54404 -278.00247 -798.1745 -534.53204 704.8307 787.4708 -179.70097 99.36265 -1134.9224 560.87964 549.0728 313.36273 -192.631 280.6002 169.67482 -811.9713 442.38425 -875.7963 -152.52254 -891.51825 349.8748 -467.38306 -1416.2356 651.8102 330.74252 -419.44144 772.52686 1463.7802 329.9315 -280.2211 -367.3689 -471.90384 741.58496 719.5526 313.96234 587.7283 4.656448 728.70575 424.4935 299.62585 -747.15137 -1433.8306 9.976355 -775.02167 293.35373 -1989.8247 186.56577 1385.8674 -580.98364 131.03555 -645.3695 575.30084 883.556 -893.96936 69.01196 39.38463 -245.75435 361.48596 126.394424 254.76912 -127.07102
253 465.908 452.30093 -338.57565 467.0846 431.189 161.27179 307.8683 -512.1542 -807.9922 280.23883 -303.4721 269.08023 -1778.5638 -1066.4388 551.566 115.13519 723.5884 804.8114 203.64088 -1396.4733 -27.952347 -224.31792 -36.902397 191.41603 125.32933 583.6047 -612.16 1134.6477 -235.83209 719.6316 501.67334 8.126885 1510.4132 -1565.94 -591.5947 754.8711 -854.4566 -33.44696 -997.39105 -126.64945 -838.66455 -939.1204 -680.9459 1205.1304 104.86741 -409.35907 -9.253537 -1207.3572 595.8079 774.594 501.8393 86.045494 324.7592 247.27733 -1314.5093 168.6282 -895.6606 -391.908 -840.26526 -366.64685 368.5061 -995.8919 95.466576 524.1766 -778.21014 737.4261 1713.0848 510.88705 -776.68964 91.28552 -834.3483 603.34924 283.37445 271.2347 299.52756 152.86383 368.80203 481.82513 523.98645 -518.4111 -892.72894 174.8186 -807.2514 255.19685 -2052.4954 581.5547 917.6889 -853.2902 -12.1426115 -736.30426 262.99353 630.82117 -1074.0571 -203.81625 534.22144 -2.3079174 -157.60667 656.33936 -61.134533 70.30562
3296 140.30864 149.5294 57.64243 -125.18047 65.23443 143.81729 370.4907 203.33063 -158.9905 12.577576 -102.70932 301.341 -421.96014 -135.96289 55.055614 -470.54337 275.7385 331.87387 230.04123 -564.3604 -335.3311 70.710045 -272.32108 -6.018861 93.61202 -93.871994 61.681404 512.8003 -62.469624 224.8582 249.44072 283.47375 300.69336 -964.94794 -63.63584 231.91133 -481.4361 162.32275 -537.2411 -172.06859 -405.77844 -178.24144 -152.10342 354.3155 156.04105 22.704533 82.02658 -587.204 -75.26464 286.40964 -57.78932 27.984852 -72.3564 167.19594 -338.31342 -90.14742 -501.53046 -480.31915 -253.69032 225.60928 270.6136 -396.34894 282.07986 274.5444 -646.81445 67.94162 741.6265 629.4397 -278.70248 313.8397 -8.150503 341.30075 75.33649 125.47362 422.52112 481.24094 340.08536 348.66833 262.24567 -582.3331 -72.62828 276.8587 -658.69476 303.26218 -785.6131 -83.610535 699.8092 -401.94046 -58.732876 -203.9918 105.99781 264.7279 -319.75323 181.01373 404.3844 -218.81602 29.379602 270.2981 50.693142 49.63915
2752 85.77697 135.45093 -48.17275 -23.176224 107.44559 130.22221 187.42804 68.30706 -143.50964 17.18862 -7.7466226 173.21169 -246.56308 -117.13269 63.25725 -240.25328 187.33687 239.22702 89.20349 -354.01215 -157.23653 63.06813 -119.235596 -5.0853434 64.42892 -4.4762793 -46.972076 380.82043 -21.51499 160.41963 116.93641 153.65932 181.49628 -542.53644 5.4709835 201.70316 -324.00903 115.536934 -292.1013 -143.32112 -246.12064 -89.61106 -126.7242 256.88837 79.709114 -60.011772 60.846012 -404.6178 -89.69958 181.33714 11.249292 52.42595 -78.94191 110.71886 -229.73755 -70.67227 -296.85025 -249.9757 -242.0808 94.96172 184.03317 -218.90053 244.6347 192.90819 -374.9271 73.44419 437.9748 296.88928 -105.58757 88.437996 -19.226118 192.8836 89.97857 51.75654 249.80542 269.29935 212.8226 244.45256 156.31302 -304.83575 -84.08728 128.53864 -345.1877 169.69359 -504.2344 7.778392 453.45822 -277.05515 19.57834 -115.776405 48.18206 211.74452 -165.44865 121.62704 221.49557 -109.99295 -1.4347379 150.9216 -5.518976 37.96402
3031 -3.9559853 13.8973465 14.3140955 2.9871345 4.5980277 -3.3397222 10.97413 7.9039936 -4.601027 -2.2354507 -4.876658 0.9294237 -24.214317 -8.106661 11.803467 -2.593862 3.5541244 -1.1411759 3.8795135 -21.207813 7.4103847 0.95552963 -2.4084358 3.990552 2.6268423 7.853225 1.8930631 10.589547 -12.926629 7.5206966 7.6952996 11.313803 21.879543 -22.61564 -1.9032156 12.651058 -0.63236845 -11.725803 -21.82257 -10.704891 -18.633081 -14.145143 -8.626883 16.243624 8.381495 -8.371804 -5.940972 -9.044163 13.597643 12.156652 3.1689382 1.1740538 -2.8477094 6.367982 -19.37276 9.380257 -4.0827446 -6.9007998 -18.420652 2.6199915 14.513124 -13.453963 4.9717617 -3.923613 -19.047127 13.244949 24.359592 13.719282 -31.40473 20.030897 -8.794547 12.064339 -3.3085537 1.0224572 13.649148 6.6188173 2.0712748 13.959191 2.1099906 -12.764226 -18.950338 20.205324 -13.13576 -3.772015 -17.190355 13.535206 19.627192 -4.129477 -3.3857398 1.3234692 4.135633 5.913098 -10.923904 -5.215861 9.405691 0.8611762 -1.978101 10.986451 5.9587083 0.81219184
4252 14.233674 2.5156312 -9.029817 9.689801 1.556462 14.841981 16.81648 7.1629443 -18.138638 11.72097 -8.5906 16.69416 -41.24753 -31.170835 26.936977 -23.021929 23.795103 33.175842 17.554926 -39.467636 -13.436178 -14.825535 -15.600305 20.146614 9.928881 1.1288328 1.8765337 37.627804 -8.318031 8.792932 10.784651 28.370474 45.88583 -64.91766 -6.1963415 3.3098173 -23.045118 -6.460647 -44.27706 9.3145485 -36.129818 -19.737835 -13.509567 48.34418 28.456844 -4.5438404 7.151056 -36.796513 13.794767 27.476877 27.623625 5.313236 20.679846 -0.9101248 -21.349398 2.1865277 -37.97843 -31.715174 -16.363947 10.716968 6.661101 -43.17669 20.222542 12.330061 -44.107494 13.671088 65.827484 30.945013 -31.390383 27.244802 -16.500078 30.67582 28.259857 8.981239 10.7642975 8.890601 15.362534 11.369179 3.0437 -31.615337 -12.949602 18.752691 -46.83005 9.587429 -58.88037 6.9030967 49.3759 -36.141376 -4.0582867 -19.956762 10.303529 -3.4300065 -36.169434 -8.259988 12.040479 -6.446063 4.919109 25.698872 8.49309 -12.28189
865 86.00736 9.950585 -28.435963 -37.69396 -7.02041 -1.4046854 56.3614 85.555595 -5.105056 -15.763851 10.79599 22.028316 -172.73956 -90.70328 40.62766 -88.218765 56.130184 23.8937 49.80082 -151.45496 -57.490597 10.324764 -69.097885 80.26651 0.9452425 -23.456139 -27.900702 123.771065 -32.38342 129.85188 70.848495 37.05302 107.093544 -226.43404 -7.076596 7.829404 -70.17407 31.34971 -109.0266 20.50538 -70.09127 -112.11545 -0.4073623 135.73758 15.613012 5.7148814 -10.964171 -123.19274 36.673767 79.395325 37.86926 -5.2584243 8.554647 7.6891327 -29.296242 -12.981249 -98.99457 -68.953285 -53.45088 44.474304 33.091526 -163.71243 63.4623 16.912159 -151.09789 52.554596 253.59769 100.61497 -111.48902 60.907143 -22.455894 110.227844 20.31679 68.326065 96.09375 42.375046 92.767456 66.2384 51.361874 -97.88213 -66.378654 86.55568 -104.97937 -6.206772 -192.74037 37.965492 216.84438 -79.48054 17.953556 -28.769802 30.082169 69.19535 -64.53241 -55.143555 22.401194 -63.00896 31.60903 72.102844 3.7765315 -13.399781
4876 28.380236 -74.85621 53.129738 -33.00306 1.7707978 -63.60735 91.95484 19.639694 -120.519 -65.13943 -47.14856 -135.2395 -213.02307 -152.69824 55.273884 -111.19283 124.16789 68.782646 90.06368 -283.7388 -62.77898 -69.19311 -60.819424 15.530406 -41.83105 55.253754 -181.58173 144.2484 -17.489296 176.9534 106.18225 108.18061 129.03429 -339.3148 -156.65042 70.34353 -189.60594 -11.846031 -156.07547 -60.120808 -62.878216 -167.22302 -128.81305 190.71698 161.64557 -25.327932 -12.334123 -161.25131 159.30267 113.64934 20.938707 -32.09115 103.41393 -1.4099119 -42.062996 91.7884 -78.71524 42.2265 -139.7524 82.23563 -86.278786 -232.099 138.56413 78.29583 -141.11295 141.41493 283.96625 90.8503 -144.34569 36.551155 -96.18703 131.28827 208.85185 70.8363 83.86375 -12.827261 96.189865 30.47451 22.303066 -113.133156 -243.42972 -4.3148456 -158.4086 30.454924 -302.15424 54.281116 218.86987 1.2327315 53.06775 -46.265 97.272675 181.46823 -107.827545 -49.30682 80.27561 -80.10699 136.37364 6.3916698 77.416985 -55.6177
4029 18.465666 -5.918271 -64.81612 -8.13109 34.312042 26.334496 79.55045 11.49468 -47.4908 -39.037117 15.983528 -9.201478 -105.16318 -9.234912 28.398674 -67.593056 91.59292 137.17177 81.06321 -115.71566 -23.160038 -5.578872 -55.328903 -3.7969005 -3.583766 -22.566225 -91.846214 113.49719 17.546963 73.18745 64.815186 40.004448 90.07204 -188.8418 -64.444374 34.522923 -105.15273 24.619022 -73.95245 13.830748 -95.8809 -48.821823 -54.272373 42.99409 43.20986 26.392467 -30.68843 -133.04826 44.91458 35.744347 -27.07459 -22.17858 16.537859 49.40386 -66.364746 -19.622967 -103.99309 -62.99034 -77.772194 55.59517 -42.943565 -84.931435 50.677464 54.266098 -138.78384 39.845135 171.17068 86.35617 -17.235718 10.493808 -30.626661 38.18643 37.503357 58.69027 36.41641 25.334137 61.89058 38.058624 -8.288791 -135.93112 -67.413506 38.132107 -109.70154 29.773026 -208.9002 11.066917 140.92056 -82.724 44.71831 -39.8878 33.248142 60.781303 -121.361336 15.192275 72.90163 9.473802 -10.301473 33.240124 29.795671 36.442837
854 5.3143997 3.1674063 10.278006 8.392014 -2.5128117 4.1801805 28.286247 6.197774 -8.783985 -1.2815914 -4.220712 14.817383 -40.02737 -38.04275 14.493408 -18.35947 8.9983 29.679813 0.9541486 -24.390163 -2.3850832 1.8847414 -17.517267 12.677657 -1.400064 1.1102073 -12.896088 29.68443 -9.648615 27.049414 13.210717 7.348765 21.234999 -60.511936 -7.6035247 14.43129 -23.343403 13.140284 -26.516924 1.4987447 -35.60984 -22.680162 -18.685892 26.769894 12.590892 -13.253134 15.403388 -40.660156 -12.419514 24.08775 3.2586486 5.5417976 -9.803461 18.093597 -1.9029346 -0.89640146 -13.6246395 -14.593438 -24.687565 27.465057 7.2391315 -44.145084 20.966612 1.6434064 -27.227816 19.57064 39.002563 30.581247 -27.093277 5.892844 -14.114756 24.339256 11.335531 12.871402 17.246326 5.354821 -2.374011 23.41048 0.8157238 -43.236492 -33.51306 33.007023 -18.93513 -3.8741524 -43.21493 4.6801553 29.188456 -10.6968975 6.934163 13.01511 -2.902554 26.642979 -19.854998 -8.572297 5.357738 -2.0228934 10.209029 17.76806 -3.9205987 -15.931828
1861 11.511326 5.6678433 -17.639135 3.2616565 -13.415599 -2.7823858 6.2244735 -11.5906 -23.917503 7.150664 -2.3609076 -22.11382 -30.50824 -8.464504 13.104577 -1.9301667 30.179455 21.842709 -6.2527704 -36.78531 6.4925566 7.371583 -5.5756025 9.278032 -12.184961 8.087719 -30.377295 6.2022595 -25.27069 8.475874 25.920921 7.440589 15.111978 -47.35325 -23.8585 1.3346759 -4.867622 14.386459 -9.873318 11.662842 4.6861753 -42.401794 -27.186686 7.348969 14.143011 -7.4662457 -29.052952 -18.41074 12.737919 15.679206 0.72206724 -3.4195569 -0.7153169 -0.9675406 -16.964636 21.826786 -24.920935 -2.6476078 -43.318565 9.008861 -15.512386 -55.432377 -9.99985 9.857345 1.5900922 10.591654 46.175503 26.81246 5.1999707 -18.40843 -8.442914 -12.338152 22.538153 -10.258572 -20.44048 11.585252 7.7275147 -0.12555882 16.058117 -16.244162 -46.620132 -18.807043 16.018652 33.34564 -35.078228 16.692339 42.076515 -13.382129 18.431355 -13.845214 -5.7676835 35.53989 6.7822375 -14.16038 -3.681875 25.638483 8.067334 3.5801208 -6.8658805 22.727268
4256 -10.01827 -131.15372 -65.160965 -6.421302 -13.263487 -45.150833 77.155106 -90.28141 -155.20798 7.281795 -7.904091 -75.396576 -164.03018 -64.20915 102.998795 -123.47471 130.35004 142.35071 76.422806 -151.86104 5.4701095 -21.830803 -30.564188 37.099224 -20.464458 31.594349 -212.06252 155.50441 -32.687138 230.04459 77.56645 120.08645 86.35936 -336.9047 -130.4907 133.88956 -224.65 17.888845 -195.00073 16.106895 -60.402443 -172.57396 -123.778366 94.973625 164.11702 -88.479706 -9.218461 -189.033 100.41005 43.845303 54.53626 -65.13278 87.17802 71.72023 -158.25618 77.84428 -120.590576 3.6605442 -167.49438 42.85835 -61.417023 -254.12746 71.76517 39.15856 -59.483307 135.47931 274.4804 25.628618 -34.580254 5.583106 -84.795 148.4043 108.452614 79.10227 61.38029 64.97535 123.98957 109.50591 25.039913 -91.18373 -248.24802 -77.677124 -122.97893 38.533764 -353.02866 81.35514 199.42587 -70.179855 58.959923 -103.49106 62.69047 190.62228 -191.28604 -60.751247 -39.571785 -58.7836 51.621933 32.09421 24.871489 -10.212147
1051 576.8068 151.64456 -552.16113 344.1591 381.43866 65.65238 407.76913 -254.09764 -663.0389 383.8167 -290.05304 166.29826 -1607.6481 -534.8057 561.0521 -219.71532 372.3873 593.71454 143.39267 -764.131 -251.36475 -355.03455 35.831356 274.736 -146.50111 300.00296 -475.16415 1315.0671 -168.30818 987.55884 325.74844 -87.68294 665.8514 -1625.1354 -494.59396 1006.831 -1048.7378 140.05205 -1105.0049 -113.03564 -703.8435 -889.39087 -780.00793 1106.4171 368.35904 -220.50037 57.145584 -1142.8285 383.90305 639.271 401.40448 -3.0300255 47.665768 358.7456 -977.87036 61.033665 -713.2273 -296.34036 -907.3071 -428.4221 43.96376 -914.5137 -238.00052 313.0789 -661.9941 802.29175 1553.3892 661.63135 -436.84778 299.91074 -589.1333 594.09125 267.64963 572.07245 215.97641 334.40326 518.08435 444.11343 239.27515 -653.859 -1077.7532 361.8664 -1195.9916 192.62048 -1958.3025 627.47437 1003.00653 -784.2418 -48.617744 -751.82794 505.62085 1180.0369 -1147.8425 -157.59657 288.5843 -463.97754 171.8301 405.42703 -205.379 -178.87914
53 23.890013 19.28583 -38.859215 7.6767187 5.8402233 16.045942 5.6785297 -6.103456 -15.93975 -12.608034 14.929699 11.817033 -58.307636 -13.981373 25.259336 -40.647625 28.25942 39.329918 -10.43984 -53.44624 -15.124131 -11.044101 -21.725912 -1.1782055 8.857833 11.883103 -15.455063 49.007355 16.8888 24.47441 1.3819097 -8.573128 35.69929 -64.42452 -18.746513 14.8135605 -42.143074 9.804321 -33.471207 -19.027205 -41.22177 -28.86991 -10.592398 47.394764 -2.4437082 -15.040149 1.603936 -51.802994 -1.8689177 18.255335 -7.2797766 5.0436125 -0.15317672 -1.369111 -9.019104 -9.540678 -51.56384 -13.189274 -38.875885 -11.808556 -9.511693 -40.62963 24.585686 9.770121 -54.765015 21.46774 56.033886 23.830084 -13.383818 4.8451877 -3.846139 14.279669 16.761753 29.91116 -3.5204356 3.458446 34.706093 35.03983 -0.36732826 -50.119583 -40.34979 11.615849 -48.61058 12.930685 -80.75735 7.9363565 45.04938 -47.177223 12.248461 -3.8587165 15.79797 49.45577 -44.0297 5.487385 3.3987741 -29.43385 -9.491843 12.683756 -9.466517 -5.357993
22 7.428246 9.555877 -3.570452 3.929319 -0.82608545 3.8410754 4.7192607 1.5310318 -2.919296 3.7136211 -1.5986284 9.556117 -12.941729 -5.635211 10.472916 -5.9917293 -1.9484235 1.212379 -2.711582 -7.0792236 -4.315461 -3.005887 -0.49641916 -0.6383879 1.0493056 -2.3462794 -2.8977115 10.150686 3.1491146 5.183881 -0.5626244 -3.4091253 1.5620887 -5.654993 3.2439036 2.3371418 -6.404693 3.5439591 -6.9952116 0.40099323 -8.568128 -5.7142553 -7.3580785 8.069122 -4.3307214 -4.0209694 2.9367824 -14.301319 -4.115545 10.745838 1.6443441 -0.0982678 2.4859796 9.17879 -8.343037 -7.0882015 -5.636902 0.25547713 -2.3262885 -2.1473007 4.9454517 -3.7308488 0.809665 1.9873674 -7.0321884 9.528929 6.5779753 4.5344124 -3.2625427 3.9381201 -4.6435246 2.3519855 -2.7143285 7.3706927 1.2319919 5.2980075 -0.20392998 9.690313 1.3339531 -3.8001428 -7.377297 6.6180973 -13.471909 -3.9935107 -10.378076 1.8781736 0.7821063 -4.8763547 7.7736273 1.1930884 2.1524506 6.078586 -7.941574 4.5141554 0.6497962 -3.3484435 0.031101778 5.826181 -7.621058 -1.6425358
4131 29.757378 11.494064 23.201387 64.38234 -11.968869 -10.881333 -68.96511 -115.42136 -27.801298 62.348312 -94.39474 -41.051456 -323.447 -189.70921 86.23267 3.666063 76.30158 54.476665 -59.557766 -198.29326 -18.272705 -17.29535 33.531948 37.903603 26.050928 136.71622 -144.58063 195.45415 -28.187304 212.77563 131.15163 45.477074 136.41905 -416.868 -124.584564 39.077293 -120.271126 13.66965 -136.9787 140.79997 -8.789494 -238.32896 -115.68887 231.10262 90.532135 -175.69862 -89.48941 -145.42325 103.762726 195.22069 164.50072 -35.18736 47.558056 82.27012 -181.59709 99.30245 -153.43785 -86.43098 -197.08794 102.121414 9.4677 -307.3083 48.39062 -17.471998 36.822006 184.42534 325.2332 129.8011 -144.53879 69.29867 -93.7062 188.45187 134.7646 -53.522324 30.349628 71.71262 66.233536 178.48767 82.348854 -54.454346 -288.74826 -35.438843 -82.611885 70.27015 -382.5088 117.24682 294.9234 -94.06218 -26.099709 -130.59898 72.10679 108.29492 3.132921 -69.69724 14.530137 26.026882 4.7865124 144.77065 -39.345955 85.2241
3846 -39.479305 114.61074 -26.504719 127.242546 -45.70473 78.31855 149.4901 -17.05777 -117.39824 4.693943 0.9239519 104.13537 -314.34192 -226.67839 35.54995 -168.39124 181.7335 266.24234 40.183064 -342.35745 -59.203705 109.815414 -70.65289 28.775858 67.096756 76.01628 -177.93576 297.72882 22.521658 190.22455 159.75798 109.13873 245.96355 -560.6765 -149.50743 285.6854 -280.42615 41.458054 -268.53192 -49.294525 -221.4838 -188.81575 -203.20021 220.11421 160.2828 -114.25632 72.36274 -358.9218 -44.04959 131.92596 34.250904 0.4354675 -150.54092 116.583466 -254.69312 -28.842854 -382.9914 -280.37033 -328.88168 109.807304 197.35965 -292.33817 245.12035 77.86923 -227.67879 86.26522 499.9021 311.87683 -101.25356 2.725458 -100.60255 239.11491 -19.441984 10.330832 243.10413 213.30728 137.49312 224.08034 183.3875 -210.38603 -218.14493 86.4753 -170.89584 30.756662 -466.96347 3.2159941 367.96475 -290.97546 -62.024986 -77.11578 20.191118 212.09283 -91.9846 74.72031 250.7956 24.292753 -84.14859 135.35439 -34.06856 56.169384
2512 -26.730091 -46.89257 31.93951 173.79114 35.252075 31.256147 150.75371 -38.371895 -131.88643 174.83955 -65.79668 71.74165 -553.79486 -313.0773 307.655 -58.571938 156.09459 86.760284 30.725508 -241.72025 -21.431864 -32.20605 -136.57433 184.2532 17.00082 46.884815 -172.93878 200.25981 -177.2747 127.74024 267.27182 221.4075 454.10062 -467.6669 -100.01711 233.23288 -351.8269 -114.036995 -487.53836 -94.03689 -379.0877 -275.80704 -236.47948 230.81802 81.83279 -132.9904 25.625008 -276.75476 69.26965 315.38348 266.76196 -105.96709 6.0403214 68.77856 -619.6887 208.72044 -329.25876 -189.63275 -478.86502 -44.997837 139.90317 -220.56992 -52.510307 60.03799 -221.05222 164.8741 650.47705 306.1523 -236.11858 181.83878 -213.06883 180.9285 92.43289 45.16149 197.3952 264.21964 100.78765 57.113605 -139.47862 -101.097404 -200.92778 204.53252 -364.56256 126.57152 -642.68634 265.53653 349.28516 -218.33281 54.059906 -266.64996 116.202385 2.2628179 -290.3075 -70.39937 181.9986 152.7101 5.101476 157.38199 -4.1493764 -21.395174
1016 187.84796 138.91077 -60.079216 -16.510036 178.16293 188.85236 184.50836 75.62047 -253.94788 43.314545 -42.449757 -136.7879 -662.36194 -306.1301 -149.07867 -138.95815 492.9849 202.02766 178.7158 -627.1395 -82.45963 -121.00619 204.53548 -184.99309 -147.90935 56.71545 -106.82545 476.24802 -63.308353 479.90826 147.39055 20.469776 448.6523 -819.3291 -321.36777 222.76984 -487.68228 -65.89546 -379.9851 130.56964 -222.05135 -168.25426 -312.30804 461.54517 229.4867 210.98918 -73.843925 -761.6056 196.56862 330.11188 291.9719 121.2965 -102.76986 -87.32682 -338.7369 125.45413 -149.88623 -241.29208 -565.74445 129.8275 -4.866272 -620.0296 391.10947 623.941 -338.0251 354.238 632.05945 358.24185 -284.0799 -86.92032 -280.81464 165.2825 73.21056 79.36931 329.88806 61.873108 260.42935 63.993374 134.91467 -223.84128 -446.286 132.38222 -403.62878 461.60477 -587.66815 449.46448 767.55695 -163.00784 171.49115 -204.30869 140.33676 319.8496 -366.2327 33.54798 341.80417 0.74522287 94.423096 152.22017 324.81955 -102.22216
3121 294.48325 118.416534 -61.093 123.32676 -7.3321853 -50.344814 53.215446 -195.08972 -395.10934 208.62076 -179.7228 -38.26888 -1062.2408 -458.00906 293.705 -197.60278 242.85495 356.38367 -147.106 -648.4452 94.12006 -154.79387 -9.686047 161.59422 54.668873 238.32689 -350.2673 676.921 -143.1756 607.92944 214.40086 206.75352 514.2276 -1208.8268 -449.03662 405.87646 -437.2942 84.70112 -636.46027 -40.27233 -464.5613 -576.8115 -502.37515 811.3161 270.78732 -313.53302 81.76947 -837.56665 271.71365 615.1638 405.4986 -37.836075 -6.3489823 61.216984 -470.71823 160.41281 -402.27283 -192.96068 -714.16547 -40.192585 123.97082 -996.23267 287.25983 33.336872 -217.77588 570.20715 1109.4507 433.2639 -330.70605 30.012943 -312.79785 464.56644 326.4265 -2.3822396 357.3921 54.022934 240.52477 413.08206 252.00615 -355.31143 -868.1412 203.87099 -692.5057 85.53832 -1268.2793 517.11035 769.3735 -463.0293 9.243894 -303.42548 178.71187 589.12976 -349.15787 -158.01375 221.5505 -95.66344 148.86874 373.28552 -190.01439 -128.12817
4848 262.60403 118.204384 -209.94318 129.83604 62.074665 127.06533 195.73093 61.51399 -261.74503 68.79179 -28.016489 170.63443 -737.7019 -408.38242 211.90305 -211.23738 235.96199 316.51834 135.33516 -610.6199 -188.9641 -160.51718 -161.36374 141.4599 -46.420063 82.356316 -169.60004 452.10645 -122.29049 331.07373 213.10991 167.44646 538.6841 -804.8659 -195.64064 316.28595 -491.618 160.7698 -575.827 -214.3581 -466.64618 -570.58 -183.46014 558.8794 102.81705 -228.86302 149.90366 -525.82855 156.95 337.5081 132.75667 28.069807 35.895245 43.226715 -325.7522 134.87572 -558.4232 -292.0354 -300.13788 -109.672615 91.74855 -570.30084 158.22641 141.33461 -448.80472 333.35138 987.1479 292.44012 -443.61993 139.8614 -207.5299 237.89417 260.36868 347.91864 222.59311 165.45813 285.85596 261.50488 201.84988 -517.77673 -286.4828 330.52713 -487.99487 46.945576 -918.07104 108.04914 371.5009 -395.89923 -22.52066 -155.62956 60.676373 317.64017 -629.0276 -41.626633 182.57784 -117.10502 77.769226 127.53486 -87.31364 -120.100624
1376 373.45898 102.833466 -1.8494172 -28.66383 29.907309 20.381676 224.22296 142.04636 -153.34224 -49.698334 -124.82266 -131.712 -670.249 -432.38632 -3.3051326 -113.36381 334.0535 247.41338 178.73611 -724.50977 -32.234722 -136.01906 63.96092 29.423141 -47.119167 212.94412 -134.2708 575.24396 -23.522076 576.47003 168.66217 24.202955 484.73264 -943.1738 -302.9446 221.5109 -456.53955 94.79724 -437.50516 16.41934 -194.99413 -516.668 -303.4135 531.73425 129.3406 38.810383 226.44286 -739.56805 315.80704 402.94113 95.11594 87.26872 43.77022 140.86232 -360.71884 -30.403244 -406.37897 -390.3569 -343.29825 23.720194 117.64269 -629.58167 245.41183 295.7862 -334.6746 403.01382 802.95624 292.29694 -470.15515 107.60147 -288.45978 298.78992 149.18355 215.58144 283.46902 149.48558 377.98538 229.5645 198.75232 -222.21815 -391.44525 149.37459 -413.8788 126.28841 -856.0787 140.24045 568.913 -286.23303 14.418672 -284.21057 175.20522 443.66504 -478.76984 -149.97145 198.07693 -142.78519 53.76545 241.51872 5.844633 -81.82968
1350 584.5387 50.5836 -285.1644 122.42553 -75.70843 70.04001 213.15366 71.95397 -370.4573 -10.339182 -100.6343 7.977556 -1296.9326 -640.23785 201.11028 -189.5687 601.12115 381.6747 251.86406 -1034.629 -141.26088 -193.97969 110.96582 107.7927 -180.84189 347.38675 -339.00357 1135.0144 22.215858 1119.0392 345.49896 90.33054 737.084 -1666.6858 -642.15704 539.96466 -785.66943 102.03904 -868.5823 117.295815 -384.14352 -850.90643 -616.02954 1053.6892 516.22516 -112.28944 160.06012 -1254.2579 482.10223 613.87823 332.25726 3.9085734 130.03458 168.07074 -765.20605 50.255367 -677.04803 -473.9822 -758.5333 -16.190666 122.24558 -1232.0698 329.52887 372.105 -665.24054 600.4816 1376.7738 520.9308 -643.91095 256.7371 -490.5534 545.99274 154.9604 216.3697 430.54727 259.9448 496.16263 468.85568 344.47366 -654.38043 -930.6912 310.80444 -630.45404 134.19194 -1606.6211 376.3961 1077.881 -658.3406 20.234758 -425.81635 313.9957 907.9168 -730.484 -356.33887 236.18834 -327.67902 92.48449 401.4163 -21.49034 -164.49515
2272 594.30176 552.0494 -364.29108 591.5153 571.81396 495.85867 783.70605 -11.92306 -838.9875 728.04407 -585.3091 539.59125 -2622.524 -1422.1656 381.31882 -75.34774 634.92535 605.3788 238.08966 -1294.3975 31.012415 -216.22833 -29.236023 640.7911 -175.13731 483.03616 -576.4004 1359.3304 -435.9778 1034.1736 732.5752 -504.98206 1907.1294 -2043.3633 -227.66321 1053.9318 -1245.2515 -13.53901 -1417.7023 442.30847 -1015.06757 -1191.455 -970.7113 784.1464 227.84515 -171.89914 -165.08846 -1273.3395 566.33105 1105.5647 389.98868 113.64471 -238.22498 370.88098 -1337.8282 109.28054 -1152.6273 -995.55975 -810.2859 -452.06387 97.10472 -1014.1019 -528.4029 708.12134 -836.7823 808.3898 2444.9788 693.4295 -880.8348 116.57348 -1163.4805 348.18265 362.84088 419.01337 215.18277 562.1996 419.86725 323.25928 266.718 28.459963 -921.63574 330.98584 -922.5225 691.2531 -2649.329 906.1408 1190.4904 -680.7025 -17.291895 -939.22375 442.58417 729.1738 -1367.8536 -413.40985 762.58563 94.6704 -71.38885 749.36584 -40.543427 -436.01498
4546 77.588715 69.65924 -127.1215 201.75537 -1.595564 68.23462 146.35716 -78.61544 -189.84015 189.31981 -144.51407 -4.607293 -411.76785 -347.45248 90.53204 -42.784817 119.19254 236.91246 -11.610504 -237.16592 -19.324375 172.0412 -38.811005 72.00734 23.76125 148.13644 -146.69919 374.36343 -70.61512 278.753 111.87875 -83.750885 305.56143 -343.5873 -142.13045 279.35168 -268.46936 -88.84641 -110.785 45.27038 -170.25362 -167.2358 -320.29712 268.79135 154.282 -49.10184 46.537174 -262.14447 105.502144 115.07295 129.25876 -0.8740742 -150.35066 89.87409 -337.3981 -66.99336 -305.20905 -192.82486 -178.59196 -87.19849 62.634914 -109.21 -157.33179 169.56456 -219.27963 193.95015 291.3315 117.583755 -148.67746 -21.183289 -316.58792 219.76003 -35.300762 6.683046 44.173634 147.36656 18.455496 106.860916 10.319613 25.14083 -310.68463 -44.50378 -16.036701 4.079233 -389.51242 157.9294 194.50674 -199.08281 -30.959375 -168.4757 76.29445 216.04932 -210.28056 -122.10674 120.41866 -28.742552 -96.21982 174.37238 -112.83081 -114.81475
518 657.3527 465.28995 -360.13217 592.14044 477.8932 249.37813 497.13553 -157.92542 -1149.0415 560.6867 -533.0208 260.0429 -2216.8018 -1028.1759 437.58438 -240.64932 321.0267 462.8707 31.6029 -1067.0024 24.618511 -197.75998 332.15747 441.85782 -66.771545 545.2621 -664.8069 1528.1107 -306.89053 1370.7386 621.9699 -584.52594 1429.3518 -2063.8613 -292.34366 1174.545 -1227.3605 262.33908 -1298.2909 629.2335 -541.86346 -1159.1326 -1004.03174 910.07837 324.71603 -171.38728 -304.9254 -1320.8993 607.6845 1067.8778 302.72534 -51.105232 -228.23988 533.59827 -1354.995 259.59354 -1063.0269 -841.26086 -915.1269 -567.00287 281.9048 -833.6887 -655.45325 638.3267 -477.4253 1003.13416 2020.5399 623.7996 -641.97644 34.27503 -1108.7565 594.8686 337.1039 391.5847 21.252907 675.89905 801.32544 794.44275 463.63437 227.5256 -1120.9542 -90.30303 -924.038 604.4452 -2626.476 903.02844 1345.1372 -824.3421 73.3275 -810.96643 416.96686 1029.602 -1148.487 -420.4914 237.674 61.146427 182.8985 713.1218 -190.34946 -153.13797
2832 52.53039 16.043262 -70.879166 102.694466 26.573969 -6.3891835 26.472166 -38.723286 -78.0066 93.414986 -76.52268 50.030598 -269.1516 -123.98168 92.738 42.657852 58.68423 36.251423 -11.574287 -75.36174 0.44533312 -5.5956354 14.278495 23.080524 -20.971981 72.13037 -63.035053 164.13026 -33.250313 102.187874 74.051865 -26.54896 129.1668 -201.70494 -58.267063 127.78214 -104.61778 -23.358425 -128.62212 34.98274 -106.0309 -99.603264 -86.8252 118.33706 76.96295 -48.642715 -22.06229 -145.1955 28.986584 72.472 73.206726 15.360403 -10.017969 43.30317 -194.2978 -23.29761 -144.92052 -79.91255 -136.92563 -52.735588 40.75398 -94.98663 -45.031704 14.461746 -67.00704 87.20455 198.86438 81.87199 -62.123505 9.159625 -115.31114 79.858665 32.389214 26.979998 20.046041 43.4048 0.98391527 58.188457 2.4972854 7.19865 -119.08675 23.44081 -76.74537 50.432022 -227.81708 90.59428 89.54098 -117.66701 -15.774786 -126.29935 57.609837 67.81077 -100.322136 -25.537874 64.448975 -14.495161 -19.59531 74.94052 -32.484104 -27.989855
2100 490.77344 539.422 -687.8811 649.39124 583.1678 195.48442 626.90186 29.855944 -1187.8381 491.3031 -489.83572 564.52795 -2181.337 -739.6448 546.833 -333.67975 174.99673 523.0033 -145.52927 -1058.572 -127.355606 -202.57304 288.2011 300.30637 -39.011204 313.5701 -702.6597 1546.0764 -201.74458 1108.1448 549.70764 -829.0295 1212.5167 -1445.9652 -329.16208 1228.0952 -1207.452 305.65237 -1113.8779 112.1605 -796.61975 -957.4936 -1013.5567 920.1603 -3.849571 2.4830158 -55.733383 -1110.4309 206.1741 992.4259 373.62427 -16.301727 -381.80167 401.14264 -1345.68 -139.09094 -943.47723 -644.9023 -721.0018 -753.7769 199.57233 -408.35956 -731.47943 543.293 -835.5031 819.03467 1821.4545 601.4351 -454.94724 34.858902 -803.0823 457.031 170.21608 582.1061 23.763748 599.14526 658.17596 730.5878 431.099 -158.68266 -591.84735 34.11134 -900.9486 561.96906 -2459.5327 698.04224 861.89496 -1088.4572 10.571619 -731.4242 318.98898 1213.3793 -1301.1838 -101.354774 605.5566 -226.70377 82.580315 451.9653 -132.48712 -93.00508
876 622.1078 196.19826 -161.31767 232.174 37.414127 274.0706 41.461353 -76.5563 -433.71765 112.20689 -321.77716 205.61911 -1407.2314 -831.71545 118.87032 -112.230125 807.5971 573.7248 272.00174 -1010.7422 85.65256 -190.09558 -71.6392 290.08865 31.802078 601.56226 -55.18017 981.5736 -151.7404 865.09686 253.64278 218.47179 964.0901 -1591.4097 -521.6948 480.23755 -611.85925 -20.009478 -796.42755 387.60428 -593.3327 -713.858 -480.32135 810.3084 562.46063 -146.62498 50.170605 -1234.8248 360.10013 509.8301 409.47302 318.11243 95.032684 87.56808 -550.3786 18.238527 -985.0198 -651.53125 -702.75934 -67.13514 144.09834 -1183.2672 402.39764 288.6449 -595.2205 506.44705 1413.7423 352.78796 -700.03455 160.6004 -559.97864 446.87268 160.45403 327.05612 396.4593 265.557 480.43698 576.0274 128.73764 -377.84048 -849.35004 374.9711 -649.62286 342.269 -1545.8855 504.63214 1096.7484 -765.6576 74.46297 -732.7727 233.55301 407.7236 -703.6817 -325.14484 303.14273 -166.22025 -108.82699 728.7304 -79.24166 -405.77737
4043 143.4285 -272.4688 216.3531 467.6261 -11.335925 -125.44805 485.09628 -608.6837 -585.92426 161.71292 -84.119736 -232.36021 -1441.7621 -887.1186 717.77515 70.85074 535.8729 592.24255 147.86443 -1051.7931 113.9925 -198.8315 -217.73917 342.25394 -173.84923 564.99634 -865.8585 811.0839 -177.32004 834.2023 573.70264 307.32178 1078.4019 -1659.599 -648.7328 797.044 -1115.5704 -27.749327 -1077.3303 -32.380924 -496.95627 -1119.6663 -623.6673 984.6287 481.1204 -469.18582 66.899055 -911.12585 457.0933 596.8115 576.2673 -182.70966 277.24405 54.64931 -1070.0743 597.2475 -872.81433 -355.76624 -1115.1006 81.19949 37.16433 -1115.9613 -6.7417374 323.29434 -409.15472 858.9461 1517.8885 510.8891 -624.46796 -97.06583 -725.69385 804.7429 550.2672 366.29712 319.13788 240.81163 439.65222 316.14694 -43.810337 -614.5678 -1170.1527 185.712 -571.3319 143.07254 -1620.131 576.2319 961.5141 -694.55493 32.52866 -617.71063 417.82977 594.56165 -871.7625 -370.68915 133.02263 86.32099 130.03252 561.21014 12.297552 -71.38938
3574 232.67485 156.82295 -217.14626 181.9364 -117.33365 32.92995 37.361626 -204.36885 -393.88892 101.58663 -130.11276 -119.984474 -796.5533 -361.45486 288.0458 -203.69145 347.0916 451.61166 -27.804604 -467.26288 31.072927 -13.401233 -109.08083 -42.583122 65.064514 279.2244 -200.57841 538.1772 -167.66194 350.81775 156.68187 120.61262 460.92294 -835.7989 -386.63998 463.36792 -406.3885 158.94937 -463.18695 40.479023 -419.30524 -414.7412 -366.5366 529.95526 252.04517 -198.11429 44.63367 -658.2914 -16.813423 276.70685 203.57268 85.96009 -153.14622 -2.6598685 -462.8819 -97.34165 -470.1094 -274.69437 -439.7494 -105.352806 93.61334 -662.7995 163.23315 59.59716 -317.7855 396.68332 886.5744 381.05768 -330.1521 103.151596 -292.20212 317.59055 150.16972 136.11522 197.42992 140.41537 209.74023 380.1877 49.88862 -390.15677 -764.4908 134.66617 -380.96243 58.37418 -940.66327 188.99913 611.1872 -440.6066 20.336967 -394.64023 15.970246 394.34644 -291.17194 -25.728874 149.24208 -80.71533 -24.492136 270.99414 -216.44002 -22.4984
4807 34.856846 -23.601343 -33.19312 16.03942 -21.477537 4.951963 36.122604 -74.28469 -92.59631 6.0375614 -18.912544 -3.863629 -118.15381 -43.534534 58.79582 5.7029905 44.242867 60.3729 37.86208 -98.00576 5.542621 -14.703495 15.425119 24.140015 -32.17471 84.841774 -78.91046 94.75863 21.24893 125.03688 48.290325 57.510933 87.646126 -153.19225 -54.895267 94.582886 -91.91166 20.856869 -139.00604 -12.17971 -20.324085 -124.920235 -56.30466 83.30798 60.483162 -43.485947 2.3329685 -105.86125 53.01642 13.689343 14.070071 -37.952106 24.734724 38.392326 -141.76459 23.791224 -107.75422 -15.703415 -87.54286 -21.188292 -1.0299847 -94.13896 -63.082138 20.33018 -26.272718 100.644615 154.69339 34.932457 -44.916985 14.717707 -88.51898 93.89511 42.28824 69.0914 31.471455 72.4284 73.55197 70.08762 20.995205 -69.02866 -89.68365 -32.530758 -72.00301 2.8615322 -199.2883 4.667264 105.016 -70.83977 -7.0387897 -66.1654 34.607677 117.4998 -139.93599 -16.274725 -24.078617 -35.079292 4.518756 37.490433 -11.551977 41.734165
4276 6.8770266 -19.33828 -19.349289 -3.6428993 9.558024 22.25691 18.616663 -18.197058 12.667591 -13.083833 -4.756798 1.003211 -85.31366 -37.97326 31.002459 -30.936754 33.054043 55.0296 44.540012 -79.19084 -10.988772 -25.620039 -18.786297 -1.0804704 -1.6333277 20.107792 -20.205936 71.976494 6.777049 57.655655 7.1920366 18.270605 46.29404 -103.77814 -26.152054 7.558983 -60.042274 10.58012 -51.175842 -9.665064 -50.614502 -39.99962 -9.988136 47.53403 22.353498 6.6456084 -1.3836826 -53.27267 15.917721 37.76175 5.98734 5.1063037 -4.4670696 -9.734685 -16.630047 3.7244148 -73.02409 -20.574583 -32.535824 29.535137 -4.8095884 -67.39605 42.029125 12.3608465 -61.484734 36.4781 83.55129 30.505423 -30.880287 2.6563025 -14.435534 40.986675 40.327938 26.249516 15.744749 -16.51385 33.808407 23.58188 -0.41023695 -65.140045 -56.377903 24.708988 -32.137974 13.796113 -92.05528 -8.652585 76.029785 -24.432909 4.8883886 -25.44531 24.030655 41.219944 -24.943144 -14.463391 7.0048065 -35.001324 6.579422 19.887295 23.368334 -18.20265
3629 19.980047 10.918659 -26.501625 5.1507215 -1.5587834 -4.197152 10.839966 -17.381437 -26.990948 -0.5978209 -1.5204272 -8.421422 -30.474894 -10.181294 20.049072 -35.490383 10.999593 17.81198 11.338148 -27.865637 -7.215477 -2.564885 3.619388 19.046787 12.887351 8.350966 -12.265201 26.07276 3.874108 18.175894 5.147367 17.286016 19.596914 -53.696053 -17.676582 23.646671 -28.48761 14.060967 -27.836226 0.92250365 -17.540468 -14.080278 -21.030596 45.339542 6.4798517 -4.3422103 -4.3251796 -30.291883 11.526935 27.973114 10.081729 0.71159804 5.926369 2.9823165 -23.80554 6.500183 -32.990063 -8.422243 -30.042046 3.8616724 -13.202501 -33.96832 13.748932 13.712254 -5.991145 29.190723 32.71834 20.94278 -4.9023886 -0.8135667 -4.746582 18.755695 27.176817 0.109809935 7.2158327 6.857967 22.08768 25.61439 12.0622425 -23.478966 -24.429977 2.4958346 -43.03231 5.7511077 -59.74728 22.680044 55.827198 -29.354237 4.5159383 -19.3518 12.74819 29.708914 -20.35189 -8.134573 -20.048508 -12.359645 14.82876 25.060091 -17.379684 9.0132475
890 76.02468 -54.25665 -44.271633 22.268051 -34.575417 6.1754303 -15.452063 -94.35152 -104.625916 -23.248018 -31.901894 -2.2315657 -146.76385 -85.39537 52.769344 -45.805042 74.5854 59.355675 44.165813 -138.16806 -22.198809 -54.806923 5.7225227 23.115883 2.3082874 108.050446 -82.29573 159.86598 -1.3205082 126.58409 19.237385 100.9964 72.43151 -276.63385 -78.39117 82.411446 -99.439384 34.789513 -119.063354 53.457302 12.742153 -131.98618 -79.1369 92.27639 103.524345 -37.666744 -19.264942 -133.68137 89.1812 33.95584 41.095203 7.1350765 60.545883 43.21931 -105.314026 80.88439 -118.58542 -25.26944 -133.64807 20.369997 -11.154347 -208.20253 58.155544 38.55442 -32.36619 119.89468 169.26974 45.65329 -51.39906 -15.236844 -81.24168 129.59825 84.33476 49.353565 9.504078 60.55269 78.05951 114.71249 57.227028 -77.38594 -144.22609 -0.46375716 -110.89873 45.633266 -235.85867 26.376196 201.60616 -98.46351 -21.016365 -54.43051 94.783485 102.30849 -94.14686 -14.536524 -55.465927 -1.0987283 9.01581 58.013992 -8.888415 -25.600533
3306 432.43567 -160.93561 206.7176 51.58077 -273.55658 -121.23942 655.01117 159.27928 -538.58453 282.79688 -341.9058 -84.34472 -1277.2943 -923.52136 380.26242 -200.60835 250.22258 472.83386 420.54117 -816.2136 -202.2563 -157.57922 -385.90286 454.8036 -185.35004 249.41438 -350.95456 857.50616 -361.47556 939.68976 534.29865 808.11584 927.97644 -1882.4203 -510.1009 803.284 -824.76086 -157.04993 -1436.0365 -263.09906 -664.0154 -1201.182 -408.48264 1387.1613 552.27997 -324.9726 263.53058 -1011.9518 570.9574 748.85913 650.8208 -160.46109 251.91792 111.78147 -577.5253 615.4238 -947.82886 -543.17065 -696.2355 -28.192213 171.16934 -1632.5731 -69.55621 -18.634623 -519.78516 928.1955 1812.8474 758.8367 -996.6373 362.569 -556.062 887.38983 772.96655 669.99506 706.2738 400.29834 468.87427 465.89133 98.896454 -698.5207 -927.9137 637.31525 -989.7359 -112.60422 -1693.1125 205.2303 1011.9766 -263.86398 -1.755397 -400.5611 258.5157 727.61224 -912.36316 -520.6737 216.94661 -274.56494 111.08813 517.33405 -7.31696 -447.48196
4761 240.08376 -9.92104 -19.441605 -49.06766 4.994015 175.8042 66.83327 43.106174 -177.33266 30.844221 -47.813442 -172.22704 -596.10925 -420.6607 75.67 -407.57248 450.1582 423.1183 154.82857 -497.1171 -86.037125 -41.12495 -42.029675 -53.0891 96.627365 165.11182 -99.391846 387.18756 -127.97925 431.72733 174.3163 189.26721 573.3668 -1045.858 -473.99298 166.07236 -470.4436 77.32521 -474.69397 100.19487 -494.74545 -158.98517 -128.25215 559.0957 222.96283 12.077643 213.09874 -685.1985 -6.759774 355.0521 199.63673 58.98849 -96.09116 -73.32236 -173.55754 120.50469 -449.5778 -127.34569 -433.0881 244.31477 -67.663574 -740.5379 572.0534 189.0727 -344.6856 412.8216 841.507 302.4716 -319.80847 108.45122 -228.60825 297.5708 239.1357 109.601395 374.54156 -61.247707 338.77606 127.77171 33.965305 -383.30292 -768.3021 177.01025 -472.6354 144.957 -866.4896 -9.263636 875.1611 -92.463005 -61.714237 -248.43723 22.696035 211.98578 -261.67026 0.067880385 176.81302 -160.44989 135.4349 333.79214 111.15424 -185.56934
608 22.368536 -11.858139 -50.442635 115.90518 17.366997 22.756042 120.15014 -148.77002 -250.14062 118.25775 -16.317757 -115.40442 -300.82053 -218.8888 157.88408 -31.89973 181.14822 210.78577 67.66652 -349.12393 4.246886 57.514946 -8.708551 15.158591 -9.91951 191.94174 -233.52394 274.67038 -73.799 278.7956 186.0374 108.92022 300.012 -447.65048 -210.74927 282.31955 -356.15164 68.823685 -265.45154 -85.21548 -96.90453 -315.0848 -252.70605 226.80792 120.97434 -82.63492 74.95946 -315.47134 49.664597 80.74993 105.05112 -6.4750013 43.840576 98.920105 -353.52054 71.75718 -289.9516 -163.57895 -221.9902 -64.7906 -65.86366 -157.15828 -144.066 151.34995 -101.06377 246.71837 471.43274 58.020153 -132.76848 50.871086 -261.69666 215.51486 113.27573 127.22542 44.256336 154.9668 155.62813 147.14838 31.618273 -78.11827 -256.73553 14.550894 -242.84485 -66.52195 -517.27747 94.054306 192.53961 -248.1292 68.69821 -207.96362 71.906006 177.50635 -395.56424 -80.763245 -52.777767 14.844833 -40.470135 134.98677 -37.9053 -64.51381
3857 98.97957 -3.8889306 33.672062 -58.262104 -6.7184067 114.157684 85.638664 27.080185 -78.438065 18.779823 -43.674614 -20.68183 -295.58728 -148.18593 36.038223 -1.24492 116.63665 83.70981 110.14449 -262.37543 -35.31622 -36.95917 -46.552666 71.19102 -48.983925 145.28458 14.987107 177.41258 -67.70749 185.72264 79.43477 121.74484 246.05084 -340.83673 -34.090687 37.087414 -200.27408 -8.880991 -212.46806 -73.7564 -84.98305 -201.57533 -19.456985 191.05891 45.986984 -75.81336 40.992313 -204.21022 74.70302 119.14012 43.675636 22.876421 11.890783 45.11849 -109.60069 70.78035 -232.73274 -120.47217 -113.331505 9.141571 25.019426 -237.23874 10.900316 89.66608 -158.90166 146.68715 398.20016 116.70771 -203.8715 115.019745 -106.12706 82.64264 75.053986 81.71516 80.95987 131.43584 158.09045 72.30529 -9.375218 -129.3296 -141.04507 141.01546 -148.42068 48.779987 -335.5649 52.067204 206.04327 -51.926773 -11.957236 -111.16598 55.654274 39.282177 -262.64264 -142.08046 95.61496 -52.110565 30.344376 112.969215 -38.280575 -1.6053556
3605 21.985605 -10.8041525 16.65506 -31.367474 39.901775 -27.05473 151.8403 -20.75048 -92.78884 -54.5573 -8.746073 3.3429334 -140.95006 -99.50465 71.19025 -140.52992 51.84925 107.384544 89.993904 -168.29042 -124.54428 -33.221634 -71.169914 -21.816326 3.1731334 -8.335892 -69.07537 132.22078 -9.616253 77.497505 55.224636 80.65217 109.1772 -301.22357 -100.62909 158.62766 -198.60307 45.1005 -209.13484 -171.3673 -56.26455 -73.73529 -50.61413 86.58285 57.9644 -55.8058 43.89439 -179.56187 -4.061715 77.00181 3.0836449 -35.749393 45.220196 75.17257 -106.03981 4.6219335 -143.1992 -66.61038 -138.46 67.6231 10.760345 -169.75206 143.74586 60.786007 -182.27544 56.97534 209.5399 135.54156 -42.72822 17.497566 3.2234268 128.5443 119.81429 50.602085 163.67471 59.66745 113.41065 63.74616 1.4712893 -222.85341 -53.005714 39.826492 -182.92984 51.246742 -293.35333 -38.78049 162.35066 -125.64666 0.74344486 -30.333258 59.930305 169.30853 -174.88814 115.4151 77.06357 -100.84184 49.363125 30.999403 73.36871 -8.387141
1563 38.072037 -205.59866 18.929537 502.09644 25.329554 194.04156 188.472 -346.5534 -486.317 154.57726 -260.27502 -172.93904 -1027.4321 -670.145 239.72316 43.883575 551.3421 394.57254 198.72507 -870.00073 -5.0752068 6.063884 211.62585 -10.387263 -184.51826 518.43805 -472.25345 943.3033 -51.179943 805.5091 386.7754 128.94148 597.42444 -1184.4744 -432.5765 694.65875 -818.13983 -110.896545 -495.9631 165.90895 -138.83066 -540.2534 -579.612 583.88086 641.16315 -143.84972 42.398647 -770.413 562.99426 394.81705 419.5239 -60.133255 92.672844 97.73155 -718.1806 174.8728 -573.2712 -330.90643 -711.94226 -74.820076 -74.710205 -933.85504 32.665855 467.8651 -350.57184 661.2228 970.0659 275.4147 -380.0528 32.58877 -886.5697 630.40186 244.72205 61.031513 250.50357 152.61748 311.33185 287.619 264.58234 -94.350204 -866.37976 -148.68968 -416.4798 191.29842 -879.3577 588.8534 902.86176 -416.2006 174.44159 -533.0313 296.82687 562.77576 -605.4432 -280.1478 189.14233 5.020262 -15.643534 366.60623 217.29445 -299.75348
1151 295.27023 49.01711 -315.7712 111.56971 67.121735 231.35503 103.89077 12.133988 -203.3324 40.920403 119.958015 135.06601 -630.9339 -84.08447 16.537552 -351.19513 350.0932 410.294 143.44296 -559.4178 -185.83777 -13.921814 -50.25252 -29.51316 149.85643 -59.86392 -126.783134 618.6953 58.99583 485.4643 51.157734 42.78571 424.26474 -794.9395 -352.393 208.88725 -364.9757 196.5009 -383.58426 -26.350233 -322.4751 -168.85489 -263.5108 456.6517 169.08054 124.05785 -6.67457 -674.96027 132.99248 212.34615 96.06976 45.851048 -67.95174 37.49164 -371.1947 -151.82445 -407.5971 -295.4295 -420.9842 -74.903175 14.00844 -385.66113 331.76755 346.2831 -564.4973 275.32077 687.4701 397.44046 -118.26478 24.598873 -189.45769 284.83572 -59.24376 165.91324 341.4763 64.04159 365.7685 249.24364 185.3332 -520.6936 -288.70752 176.27805 -519.22894 129.32048 -800.73535 71.48806 576.44196 -464.73267 -24.881033 -153.25496 117.48722 550.9681 -528.46 20.403421 278.99792 -133.73726 -71.01546 215.06975 -36.301567 56.050304
1504 228.55206 55.22584 -397.81927 136.05113 94.54106 123.82792 108.07769 0.47666216 -250.13588 92.88266 99.27129 118.11238 -692.01154 -69.62226 127.76063 -356.84384 337.11246 448.79916 11.22299 -561.03864 -198.33542 -74.727394 -34.751038 -92.08337 108.40185 -9.8021 -214.87688 586.9218 -20.623907 458.62 49.628983 -17.388784 419.02536 -763.1236 -260.47647 362.30368 -426.41345 213.82515 -469.6891 -20.774805 -389.8662 -235.8521 -323.88684 406.58035 158.57677 13.384438 -35.383392 -762.734 38.832096 216.63033 7.2801514 11.9487505 -135.3474 145.24342 -451.40503 -114.66215 -442.84076 -278.995 -506.7255 -29.945251 7.089833 -433.48172 276.59024 301.78055 -447.61795 393.61035 736.2835 374.17136 -65.11289 37.537094 -185.80368 331.37112 -10.182893 180.97021 314.0454 114.962875 370.9903 282.2225 165.44667 -504.91013 -399.7248 135.96515 -549.2634 148.3439 -933.3468 181.40149 622.6697 -485.69727 34.838303 -163.04958 107.68916 610.15216 -515.4608 145.44624 224.77882 -142.91803 -16.50871 149.2529 -40.340015 51.15344
1614 325.33978 64.14709 -623.7752 69.81746 210.15259 158.34134 256.62418 -218.58577 -493.56027 -103.84833 256.64978 33.586533 -949.6706 -7.38414 143.21906 -621.11914 616.42346 823.34265 96.65236 -807.1637 -284.84372 -114.30512 -106.58845 -144.04561 56.303783 -148.84898 -437.6679 732.9319 129.00249 580.1177 188.37495 23.706106 617.2566 -1143.719 -582.88666 511.07214 -954.46216 382.4332 -533.4321 -110.09872 -538.20074 -259.29187 -547.21844 615.15 219.24228 73.49547 -141.76816 -1035.1273 171.19241 167.59372 162.9217 -64.66698 134.73772 118.63083 -678.50244 -151.31392 -559.6737 -323.66364 -856.50757 6.959922 -274.06366 -565.76337 523.77826 618.15454 -916.0706 481.17853 1042.5013 503.46313 -36.424572 -265.15536 -322.41174 277.63702 108.091064 320.3407 413.7092 42.377377 477.38306 361.0096 182.44144 -878.8204 -613.9235 132.09048 -761.931 256.82867 -1317.377 301.41852 862.0585 -758.3132 138.01765 -205.87178 260.532 1000.87286 -1020.81195 189.33879 427.9135 -199.68556 83.529594 150.00424 44.76172 153.28658
1503 296.75858 80.80103 -385.4112 16.707796 29.212921 121.37814 154.92609 41.598694 -182.43878 15.91806 94.064445 29.10075 -591.3259 -41.995148 34.521286 -332.906 319.22025 424.05588 92.37352 -472.567 -204.21735 -20.12266 -115.96741 2.5748158 85.266335 -84.45632 -132.3669 467.97946 8.438707 407.83936 103.30583 43.560596 404.06268 -756.43286 -258.59824 250.62032 -312.9497 264.34903 -399.8484 -94.246826 -335.9169 -271.8479 -290.69714 367.02658 100.09123 18.902058 14.449374 -634.11957 24.43273 217.23691 40.326416 13.3413725 -57.510063 97.72873 -348.06522 -64.04533 -392.06393 -267.11307 -414.27567 -51.03367 17.535248 -481.90976 266.85565 244.5016 -519.4757 302.2516 745.922 340.45294 -89.000084 38.250824 -138.8524 213.32097 26.622055 189.81606 294.50867 55.923496 277.4798 231.46184 110.6238 -494.41443 -347.54004 228.50627 -450.32718 38.46284 -799.2023 45.22433 547.7111 -379.6434 16.232454 -77.67617 146.58508 524.9205 -514.171 55.53119 207.06624 -132.79927 11.231353 155.63615 -50.37373 10.712393
4294 16.66096 51.685345 -43.001606 49.031456 8.0709095 -11.49325 33.65625 -41.224926 -89.9191 76.58563 -26.182528 -16.294382 -176.03421 -115.30624 46.584454 8.468962 85.767265 94.16364 30.803753 -127.71168 -9.810939 72.02725 -5.7650313 -4.9384313 7.137396 43.21036 -54.620045 129.13835 -30.94574 100.54937 61.795185 -6.5458026 105.2939 -138.86554 -76.330376 134.15105 -126.39087 8.004344 -51.316128 -17.633743 -52.413166 -122.381165 -103.68328 65.28565 42.041573 -24.916334 5.2042904 -132.85918 -15.793337 41.896496 38.91092 1.1557462 -55.640606 30.135263 -145.34091 -26.965296 -118.40502 -92.36311 -85.898445 -35.394634 36.477875 -65.824684 -43.79965 78.509415 -85.961685 71.59996 137.94362 27.810331 -82.78466 -33.73632 -122.91511 72.34681 17.456228 36.775723 22.1048 47.171764 37.635735 60.519978 5.411123 -23.2689 -70.67641 -10.073438 -7.7375717 -3.5351846 -150.9011 58.305157 70.21824 -78.41338 -10.245891 -67.943756 37.511173 75.50935 -117.83905 -15.314776 54.08901 -11.996486 -13.840615 29.252201 -42.35735 -9.078594
3293 288.70688 51.50979 153.3884 117.90017 -26.42924 -24.809063 19.664677 -51.68308 -236.0914 167.83421 -187.30362 -210.22427 -830.325 -520.38434 48.416115 -180.2934 341.94174 191.306 100.09352 -673.08514 54.873116 -5.102722 -0.90902877 41.626614 -65.30117 370.72308 -188.34348 561.95483 -140.35962 615.5657 218.97758 386.1088 528.039 -1192.3529 -385.76178 214.51767 -460.53754 -60.80824 -710.9732 3.1802645 -378.4807 -427.06982 -285.28085 715.5318 370.74854 -324.6373 198.50879 -875.8236 103.3787 323.14893 385.1364 38.62176 -199.55247 2.5010889 -350.72845 207.29274 -382.6172 -239.74582 -563.2341 217.49135 132.00499 -1029.4305 336.22192 191.86328 -194.99721 627.3392 1082.6244 494.67526 -457.6932 99.26943 -357.59378 435.81393 266.08475 46.867516 565.4342 257.69315 292.088 277.05176 111.93216 -208.86606 -1024.5431 179.49567 -543.63666 146.76073 -846.231 228.74176 953.31683 -132.181 79.12593 -347.00244 29.640156 350.08987 -27.832268 -116.29173 237.50346 -90.56039 177.13583 403.84283 -149.22983 -19.236256
